{"children_left": [1, 2, 3, 4, 5, 6, 7, 8, 9, -1, 11, -1, 13, -1, -1, 16, -1, -1, 19, 20, 21, -1, 23, -1, 25, -1, -1, 28, 29, 30, -1, 32, -1, 34, -1, -1, 37, -1, 39, 40, 41, -1, -1, -1, -1, -1, -1, -1, -1, 50, 51, -1, -1, -1, 55, 56, 57, 58, 59, 60, -1, -1, 63, 64, -1, -1, -1, 68, 69, 70, 71, 72, -1, -1, 75, 76, -1, 78, -1, -1, 81, 82, -1, -1, 85, 86, -1, -1, -1, 90, 91, 92, -1, -1, 95, -1, 97, -1, 99, -1, -1, 102, -1, -1, 105, -1, -1, 108, 109, -1, 111, -1, -1, 114, -1, -1, 117, -1, 119, -1, 121, -1, -1, 124, -1, 126, 127, -1, 129, -1, -1, 132, -1, -1, 135, 136, -1, 138, -1, 140, -1, -1, 143, -1, -1, 146, 147, 148, 149, -1, 151, -1, -1, -1, 155, 156, -1, -1, 159, 160, -1, 162, 163, -1, -1, -1, -1, 168, 169, 170, 171, 172, -1, 174, 175, -1, -1, -1, 179, -1, 181, 182, -1, -1, -1, -1, -1, -1, 189, 190, 191, 192, 193, 194, 195, 196, 197, 198, -1, 200, -1, -1, -1, 204, 205, 206, -1, -1, 209, 210, -1, -1, -1, 214, -1, -1, -1, 218, -1, -1, -1, 222, 223, -1, 225, 226, 227, -1, 229, 230, 231, -1, -1, -1, -1, 236, -1, -1, 239, 240, 241, 242, -1, -1, -1, -1, 247, -1, -1, 250, 251, 252, -1, 254, -1, -1, 257, -1, 259, -1, -1, 262, -1, 264, -1, 266, 267, 268, -1, -1, -1, -1, 273, 274, -1, -1, 277, 278, -1, -1, 281, 282, -1, 284, -1, -1, 287, -1, 289, -1, -1, 292, 293, 294, 295, 296, -1, 298, -1, 300, 301, -1, -1, 304, 305, 306, 307, -1, 309, 310, -1, -1, -1, -1, -1, -1, -1, 318, 319, 320, -1, 322, 323, -1, -1, -1, 327, -1, 329, -1, -1, 332, -1, 334, -1, -1, 337, 338, 339, -1, 341, 342, 343, 344, -1, 346, -1, -1, 349, 350, -1, -1, 353, -1, 355, 356, -1, 358, 359, -1, -1, -1, 363, 364, 365, 366, -1, -1, -1, 370, -1, 372, 373, -1, 375, -1, -1, -1, -1, -1, -1, -1, 383, 384, 385, -1, 387, 388, -1, 390, -1, -1, 393, -1, -1, 396, 397, -1, 399, -1, 401, -1, -1, 404, 405, -1, -1, -1, 409, 410, 411, -1, 413, -1, -1, 416, -1, 418, -1, -1, 421, -1, -1, 424, 425, 426, 427, 428, 429, 430, -1, -1, 433, 434, 435, 436, 437, -1, 439, 440, 441, -1, -1, -1, 445, -1, -1, 448, -1, 450, 451, -1, -1, -1, -1, 456, 457, 458, -1, -1, 461, -1, 463, -1, -1, -1, 467, -1, 469, 470, 471, -1, -1, 474, -1, -1, -1, 478, -1, 480, -1, -1, -1, 484, 485, 486, 487, 488, 489, 490, 491, -1, -1, -1, -1, 496, 497, 498, 499, 500, -1, -1, -1, 504, -1, 506, -1, -1, 509, 510, 511, -1, 513, 514, -1, -1, 517, -1, 519, 520, -1, 522, 523, -1, -1, -1, -1, 528, 529, 530, 531, -1, -1, 534, 535, -1, 537, -1, -1, 540, -1, -1, 543, -1, -1, -1, 547, 548, 549, -1, 551, -1, -1, 554, 555, -1, -1, -1, -1, 560, -1, -1, 563, -1, 565, 566, -1, 568, -1, -1, 571, -1, 573, -1, -1, 576, 577, 578, -1, 580, -1, 582, -1, 584, -1, -1, 587, -1, -1, 590, 591, 592, 593, -1, -1, 596, 597, -1, -1, -1, -1, 602, 603, -1, 605, -1, -1, -1, -1, 610, -1, -1, 613, 614, 615, 616, -1, 618, 619, -1, -1, -1, -1, 624, 625, 626, 627, 628, 629, -1, 631, -1, 633, -1, 635, 636, -1, -1, 639, 640, -1, -1, 643, 644, -1, -1, -1, -1, 649, -1, 651, -1, -1, 654, 655, -1, -1, 658, -1, 660, 661, -1, -1, -1, 665, -1, 667, 668, -1, -1, -1, 672, 673, -1, 675, -1, -1, -1, 679, 680, 681, 682, -1, -1, -1, 686, 687, 688, -1, -1, -1, 692, -1, -1, 695, 696, -1, -1, 699, 700, 701, -1, -1, 704, -1, 706, 707, -1, -1, -1, -1, 712, -1, 714, -1, 716, -1, -1, 719, 720, 721, 722, 723, 724, 725, 726, 727, -1, -1, -1, 731, -1, 733, 734, -1, -1, 737, -1, -1, 740, 741, -1, -1, -1, 745, -1, 747, -1, -1, 750, 751, -1, 753, -1, -1, 756, 757, 758, 759, 760, -1, -1, 763, 764, 765, -1, 767, 768, 769, -1, -1, -1, 773, 774, 775, 776, -1, -1, -1, -1, 781, 782, 783, -1, 785, -1, -1, 788, 789, 790, 791, 792, 793, -1, -1, 796, -1, 798, -1, 800, -1, -1, 803, 804, -1, 806, -1, -1, 809, -1, 811, -1, -1, 814, -1, 816, 817, -1, -1, 820, 821, -1, 823, 824, -1, -1, -1, 828, -1, -1, 831, -1, -1, -1, 835, 836, -1, -1, 839, 840, -1, -1, -1, -1, 845, 846, -1, 848, -1, 850, 851, 852, -1, -1, -1, 856, 857, -1, -1, 860, 861, 862, 863, -1, -1, -1, 867, -1, -1, 870, -1, 872, 873, 874, -1, 876, -1, 878, -1, -1, -1, -1, -1, 884, 885, 886, -1, -1, 889, -1, -1, 892, 893, 894, 895, -1, 897, -1, -1, -1, -1, -1, 903, 904, 905, -1, -1, 908, 909, 910, -1, 912, 913, 914, 915, -1, 917, 918, -1, -1, -1, -1, -1, 924, 925, -1, 927, -1, 929, -1, 931, -1, -1, -1, -1, 936, 937, 938, -1, 940, -1, -1, -1, -1, 945, -1, 947, -1, 949, -1, -1, 952, 953, 954, 955, 956, -1, 958, 959, -1, -1, -1, -1, 964, -1, -1, 967, -1, -1, 970, -1, -1, 973, 974, 975, 976, 977, -1, 979, 980, 981, 982, -1, -1, -1, 986, -1, -1, 989, -1, 991, -1, -1, 994, -1, -1, 997, 998, 999, -1, -1, -1, 1003, 1004, 1005, 1006, -1, -1, -1, -1, 1011, 1012, 1013, 1014, 1015, 1016, 1017, 1018, -1, 1020, -1, -1, 1023, -1, 1025, -1, -1, 1028, -1, -1, 1031, 1032, -1, -1, 1035, -1, 1037, -1, 1039, -1, 1041, 1042, -1, -1, 1045, -1, -1, 1048, 1049, -1, -1, 1052, 1053, -1, 1055, -1, 1057, -1, 1059, -1, -1, -1, 1063, 1064, 1065, 1066, -1, 1068, 1069, -1, -1, -1, 1073, 1074, 1075, 1076, -1, 1078, -1, -1, -1, -1, -1, 1084, 1085, 1086, -1, 1088, 1089, -1, -1, -1, -1, 1094, 1095, -1, 1097, -1, -1, 1100, -1, 1102, -1, 1104, -1, -1, -1, 1108, -1, -1, 1111, -1, 1113, -1, 1115, -1, 1117, -1, 1119, -1, 1121, -1, -1, 1124, 1125, 1126, 1127, 1128, -1, 1130, 1131, -1, -1, -1, 1135, -1, -1, -1, 1139, -1, -1, -1, 1143, -1, 1145, 1146, -1, -1, -1, 1150, -1, 1152, 1153, 1154, 1155, -1, 1157, -1, -1, -1, 1161, -1, 1163, 1164, 1165, -1, -1, -1, 1169, -1, -1, 1172, -1, 1174, 1175, -1, -1, 1178, 1179, -1, 1181, -1, -1, 1184, -1, 1186, -1, -1, 1189, 1190, 1191, 1192, 1193, 1194, -1, 1196, 1197, 1198, -1, 1200, -1, 1202, -1, 1204, 1205, -1, -1, -1, 1209, 1210, -1, -1, 1213, -1, 1215, -1, 1217, -1, 1219, -1, 1221, 1222, 1223, -1, -1, 1226, 1227, 1228, -1, -1, -1, -1, 1233, -1, 1235, -1, 1237, -1, -1, -1, 1241, 1242, 1243, 1244, 1245, 1246, 1247, -1, -1, -1, -1, 1252, -1, -1, 1255, 1256, 1257, -1, -1, 1260, 1261, 1262, -1, 1264, 1265, 1266, -1, -1, -1, -1, 1271, -1, -1, 1274, 1275, -1, 1277, -1, -1, -1, 1281, -1, 1283, 1284, 1285, -1, -1, -1, 1289, -1, -1, 1292, -1, 1294, -1, -1, 1297, -1, -1, 1300, 1301, 1302, -1, -1, 1305, 1306, -1, 1308, -1, -1, 1311, -1, -1, 1314, 1315, -1, -1, 1318, 1319, 1320, 1321, 1322, 1323, 1324, -1, -1, -1, 1328, -1, -1, 1331, -1, -1, -1, -1, -1, 1337, -1, 1339, 1340, 1341, 1342, 1343, -1, -1, -1, -1, -1, 1349, -1, 1351, -1, 1353, -1, 1355, -1, -1, 1358, 1359, 1360, -1, -1, 1363, 1364, 1365, 1366, -1, 1368, -1, -1, -1, -1, 1373, 1374, 1375, 1376, 1377, 1378, -1, -1, 1381, 1382, -1, 1384, -1, -1, -1, 1388, -1, 1390, -1, 1392, -1, 1394, -1, -1, -1, 1398, -1, -1, -1, -1, 1403, -1, 1405, 1406, 1407, 1408, -1, -1, 1411, -1, -1, -1, 1415, 1416, 1417, 1418, -1, -1, 1421, -1, -1, -1, 1425, -1, -1], "children_right": [188, 145, 54, 49, 48, 47, 18, 15, 10, -1, 12, -1, 14, -1, -1, 17, -1, -1, 46, 27, 22, -1, 24, -1, 26, -1, -1, 45, 36, 31, -1, 33, -1, 35, -1, -1, 38, -1, 44, 43, 42, -1, -1, -1, -1, -1, -1, -1, -1, 53, 52, -1, -1, -1, 134, 123, 116, 67, 62, 61, -1, -1, 66, 65, -1, -1, -1, 107, 104, 89, 74, 73, -1, -1, 80, 77, -1, 79, -1, -1, 84, 83, -1, -1, 88, 87, -1, -1, -1, 101, 94, 93, -1, -1, 96, -1, 98, -1, 100, -1, -1, 103, -1, -1, 106, -1, -1, 113, 110, -1, 112, -1, -1, 115, -1, -1, 118, -1, 120, -1, 122, -1, -1, 125, -1, 131, 128, -1, 130, -1, -1, 133, -1, -1, 142, 137, -1, 139, -1, 141, -1, -1, 144, -1, -1, 167, 154, 153, 150, -1, 152, -1, -1, -1, 158, 157, -1, -1, 166, 161, -1, 165, 164, -1, -1, -1, -1, 187, 186, 185, 178, 173, -1, 177, 176, -1, -1, -1, 180, -1, 184, 183, -1, -1, -1, -1, -1, -1, 718, 291, 272, 221, 220, 217, 216, 203, 202, 199, -1, 201, -1, -1, -1, 213, 208, 207, -1, -1, 212, 211, -1, -1, -1, 215, -1, -1, -1, 219, -1, -1, -1, 249, 224, -1, 238, 235, 228, -1, 234, 233, 232, -1, -1, -1, -1, 237, -1, -1, 246, 245, 244, 243, -1, -1, -1, -1, 248, -1, -1, 261, 256, 253, -1, 255, -1, -1, 258, -1, 260, -1, -1, 263, -1, 265, -1, 271, 270, 269, -1, -1, -1, -1, 276, 275, -1, -1, 280, 279, -1, -1, 286, 283, -1, 285, -1, -1, 288, -1, 290, -1, -1, 423, 336, 317, 316, 297, -1, 299, -1, 303, 302, -1, -1, 315, 314, 313, 308, -1, 312, 311, -1, -1, -1, -1, -1, -1, -1, 331, 326, 321, -1, 325, 324, -1, -1, -1, 328, -1, 330, -1, -1, 333, -1, 335, -1, -1, 382, 381, 340, -1, 380, 379, 348, 345, -1, 347, -1, -1, 352, 351, -1, -1, 354, -1, 362, 357, -1, 361, 360, -1, -1, -1, 378, 369, 368, 367, -1, -1, -1, 371, -1, 377, 374, -1, 376, -1, -1, -1, -1, -1, -1, -1, 408, 395, 386, -1, 392, 389, -1, 391, -1, -1, 394, -1, -1, 403, 398, -1, 400, -1, 402, -1, -1, 407, 406, -1, -1, -1, 420, 415, 412, -1, 414, -1, -1, 417, -1, 419, -1, -1, 422, -1, -1, 711, 612, 483, 482, 477, 432, 431, -1, -1, 466, 455, 454, 447, 438, -1, 444, 443, 442, -1, -1, -1, 446, -1, -1, 449, -1, 453, 452, -1, -1, -1, -1, 465, 460, 459, -1, -1, 462, -1, 464, -1, -1, -1, 468, -1, 476, 473, 472, -1, -1, 475, -1, -1, -1, 479, -1, 481, -1, -1, -1, 609, 608, 575, 562, 495, 494, 493, 492, -1, -1, -1, -1, 559, 508, 503, 502, 501, -1, -1, -1, 505, -1, 507, -1, -1, 546, 527, 512, -1, 516, 515, -1, -1, 518, -1, 526, 521, -1, 525, 524, -1, -1, -1, -1, 545, 542, 533, 532, -1, -1, 539, 536, -1, 538, -1, -1, 541, -1, -1, 544, -1, -1, -1, 558, 553, 550, -1, 552, -1, -1, 557, 556, -1, -1, -1, -1, 561, -1, -1, 564, -1, 570, 567, -1, 569, -1, -1, 572, -1, 574, -1, -1, 589, 586, 579, -1, 581, -1, 583, -1, 585, -1, -1, 588, -1, -1, 601, 600, 595, 594, -1, -1, 599, 598, -1, -1, -1, -1, 607, 604, -1, 606, -1, -1, -1, -1, 611, -1, -1, 678, 623, 622, 617, -1, 621, 620, -1, -1, -1, -1, 671, 664, 653, 648, 647, 630, -1, 632, -1, 634, -1, 638, 637, -1, -1, 642, 641, -1, -1, 646, 645, -1, -1, -1, -1, 650, -1, 652, -1, -1, 657, 656, -1, -1, 659, -1, 663, 662, -1, -1, -1, 666, -1, 670, 669, -1, -1, -1, 677, 674, -1, 676, -1, -1, -1, 694, 685, 684, 683, -1, -1, -1, 691, 690, 689, -1, -1, -1, 693, -1, -1, 698, 697, -1, -1, 710, 703, 702, -1, -1, 705, -1, 709, 708, -1, -1, -1, -1, 713, -1, 715, -1, 717, -1, -1, 1188, 1149, 972, 749, 744, 739, 730, 729, 728, -1, -1, -1, 732, -1, 736, 735, -1, -1, 738, -1, -1, 743, 742, -1, -1, -1, 746, -1, 748, -1, -1, 755, 752, -1, 754, -1, -1, 951, 902, 883, 762, 761, -1, -1, 844, 843, 766, -1, 772, 771, 770, -1, -1, -1, 780, 779, 778, 777, -1, -1, -1, -1, 834, 787, 784, -1, 786, -1, -1, 833, 830, 813, 802, 795, 794, -1, -1, 797, -1, 799, -1, 801, -1, -1, 808, 805, -1, 807, -1, -1, 810, -1, 812, -1, -1, 815, -1, 819, 818, -1, -1, 827, 822, -1, 826, 825, -1, -1, -1, 829, -1, -1, 832, -1, -1, -1, 838, 837, -1, -1, 842, 841, -1, -1, -1, -1, 882, 847, -1, 849, -1, 855, 854, 853, -1, -1, -1, 859, 858, -1, -1, 869, 866, 865, 864, -1, -1, -1, 868, -1, -1, 871, -1, 881, 880, 875, -1, 877, -1, 879, -1, -1, -1, -1, -1, 891, 888, 887, -1, -1, 890, -1, -1, 901, 900, 899, 896, -1, 898, -1, -1, -1, -1, -1, 944, 907, 906, -1, -1, 935, 934, 911, -1, 923, 922, 921, 916, -1, 920, 919, -1, -1, -1, -1, -1, 933, 926, -1, 928, -1, 930, -1, 932, -1, -1, -1, -1, 943, 942, 939, -1, 941, -1, -1, -1, -1, 946, -1, 948, -1, 950, -1, -1, 969, 966, 963, 962, 957, -1, 961, 960, -1, -1, -1, -1, 965, -1, -1, 968, -1, -1, 971, -1, -1, 1142, 1123, 996, 993, 978, -1, 988, 985, 984, 983, -1, -1, -1, 987, -1, -1, 990, -1, 992, -1, -1, 995, -1, -1, 1002, 1001, 1000, -1, -1, -1, 1010, 1009, 1008, 1007, -1, -1, -1, -1, 1110, 1107, 1062, 1047, 1030, 1027, 1022, 1019, -1, 1021, -1, -1, 1024, -1, 1026, -1, -1, 1029, -1, -1, 1034, 1033, -1, -1, 1036, -1, 1038, -1, 1040, -1, 1044, 1043, -1, -1, 1046, -1, -1, 1051, 1050, -1, -1, 1061, 1054, -1, 1056, -1, 1058, -1, 1060, -1, -1, -1, 1106, 1083, 1072, 1067, -1, 1071, 1070, -1, -1, -1, 1082, 1081, 1080, 1077, -1, 1079, -1, -1, -1, -1, -1, 1093, 1092, 1087, -1, 1091, 1090, -1, -1, -1, -1, 1099, 1096, -1, 1098, -1, -1, 1101, -1, 1103, -1, 1105, -1, -1, -1, 1109, -1, -1, 1112, -1, 1114, -1, 1116, -1, 1118, -1, 1120, -1, 1122, -1, -1, 1141, 1138, 1137, 1134, 1129, -1, 1133, 1132, -1, -1, -1, 1136, -1, -1, -1, 1140, -1, -1, -1, 1144, -1, 1148, 1147, -1, -1, -1, 1151, -1, 1171, 1160, 1159, 1156, -1, 1158, -1, -1, -1, 1162, -1, 1168, 1167, 1166, -1, -1, -1, 1170, -1, -1, 1173, -1, 1177, 1176, -1, -1, 1183, 1180, -1, 1182, -1, -1, 1185, -1, 1187, -1, -1, 1402, 1357, 1336, 1299, 1240, 1195, -1, 1239, 1208, 1199, -1, 1201, -1, 1203, -1, 1207, 1206, -1, -1, -1, 1212, 1211, -1, -1, 1214, -1, 1216, -1, 1218, -1, 1220, -1, 1232, 1225, 1224, -1, -1, 1231, 1230, 1229, -1, -1, -1, -1, 1234, -1, 1236, -1, 1238, -1, -1, -1, 1296, 1291, 1254, 1251, 1250, 1249, 1248, -1, -1, -1, -1, 1253, -1, -1, 1280, 1259, 1258, -1, -1, 1273, 1270, 1263, -1, 1269, 1268, 1267, -1, -1, -1, -1, 1272, -1, -1, 1279, 1276, -1, 1278, -1, -1, -1, 1282, -1, 1288, 1287, 1286, -1, -1, -1, 1290, -1, -1, 1293, -1, 1295, -1, -1, 1298, -1, -1, 1313, 1304, 1303, -1, -1, 1310, 1307, -1, 1309, -1, -1, 1312, -1, -1, 1317, 1316, -1, -1, 1335, 1334, 1333, 1330, 1327, 1326, 1325, -1, -1, -1, 1329, -1, -1, 1332, -1, -1, -1, -1, -1, 1338, -1, 1348, 1347, 1346, 1345, 1344, -1, -1, -1, -1, -1, 1350, -1, 1352, -1, 1354, -1, 1356, -1, -1, 1401, 1362, 1361, -1, -1, 1372, 1371, 1370, 1367, -1, 1369, -1, -1, -1, -1, 1400, 1397, 1396, 1387, 1380, 1379, -1, -1, 1386, 1383, -1, 1385, -1, -1, -1, 1389, -1, 1391, -1, 1393, -1, 1395, -1, -1, -1, 1399, -1, -1, -1, -1, 1404, -1, 1414, 1413, 1410, 1409, -1, -1, 1412, -1, -1, -1, 1424, 1423, 1420, 1419, -1, -1, 1422, -1, -1, -1, 1426, -1, -1], "threshold": [270.5, 195.5, 70.5, 193.5, 176.5, 61.5, 33.5, 32.5, 10.5, -2.0, 64.5, -2.0, 13.5, -2.0, -2.0, 232.0, -2.0, -2.0, 752.5, 40.5, 163.5, -2.0, 41.5, -2.0, 51.0, -2.0, -2.0, 266.5, 51.5, 745.5, -2.0, 165.0, -2.0, 747.0, -2.0, -2.0, 60.5, -2.0, 61.5, 746.5, 9.5, -2.0, -2.0, -2.0, -2.0, -2.0, -2.0, -2.0, -2.0, 144.5, 758.0, -2.0, -2.0, -2.0, 732.5, 214.0, 22.5, 72.5, 386.5, 9.5, -2.0, -2.0, 741.0, 402.5, -2.0, -2.0, -2.0, 164.5, 760.5, 390.0, 160.5, 146.0, -2.0, -2.0, 111.5, 198.5, -2.0, 109.0, -2.0, -2.0, 161.5, 788.0, -2.0, -2.0, 310.5, 96.0, -2.0, -2.0, -2.0, 269.5, 219.5, 259.5, -2.0, -2.0, 758.5, -2.0, 297.5, -2.0, 306.5, -2.0, -2.0, 342.5, -2.0, -2.0, 94.0, -2.0, -2.0, 250.5, 755.5, -2.0, 307.0, -2.0, -2.0, 207.5, -2.0, -2.0, 247.5, -2.0, 92.5, -2.0, 111.5, -2.0, -2.0, 204.0, -2.0, 732.5, 392.0, -2.0, 146.5, -2.0, -2.0, 117.0, -2.0, -2.0, 34.0, 738.5, -2.0, 4.0, -2.0, 184.5, -2.0, -2.0, 120.0, -2.0, -2.0, 93.5, 715.5, 113.5, 83.5, -2.0, 263.5, -2.0, -2.0, -2.0, 259.0, 479.0, -2.0, -2.0, 268.0, 85.5, -2.0, 735.5, 299.5, -2.0, -2.0, -2.0, -2.0, 271.5, 28.5, 96.5, 498.0, 189.5, -2.0, 311.5, 211.5, -2.0, -2.0, -2.0, 172.5, -2.0, 761.5, 449.0, -2.0, -2.0, -2.0, -2.0, -2.0, -2.0, 210.5, 259.5, 740.5, 296.5, 464.0, 241.0, 253.5, 91.5, 289.5, 77.5, -2.0, 185.5, -2.0, -2.0, -2.0, 732.5, 731.5, 11.5, -2.0, -2.0, 221.5, 11.5, -2.0, -2.0, -2.0, 289.5, -2.0, -2.0, -2.0, 257.0, -2.0, -2.0, -2.0, 221.0, 718.5, -2.0, 196.0, 75.5, 309.5, -2.0, 15.5, 206.0, 381.0, -2.0, -2.0, -2.0, -2.0, 298.5, -2.0, -2.0, 18.5, 193.5, 115.0, 365.0, -2.0, -2.0, -2.0, -2.0, 206.5, -2.0, -2.0, 313.5, 67.5, 237.5, -2.0, 235.5, -2.0, -2.0, 69.5, -2.0, 249.5, -2.0, -2.0, 395.0, -2.0, 109.5, -2.0, 163.0, 734.5, 18.0, -2.0, -2.0, -2.0, -2.0, 220.5, 175.0, -2.0, -2.0, 100.5, 18.5, -2.0, -2.0, 221.5, 315.5, -2.0, 200.5, -2.0, -2.0, 283.5, -2.0, 723.5, -2.0, -2.0, 45.5, 287.5, 37.5, 274.5, 28.5, -2.0, 61.5, -2.0, 22.5, 561.0, -2.0, -2.0, 721.5, 25.5, 273.5, 272.0, -2.0, 720.5, 23.5, -2.0, -2.0, -2.0, -2.0, -2.0, -2.0, -2.0, 41.5, 746.5, 274.5, -2.0, 714.5, 276.0, -2.0, -2.0, -2.0, 49.5, -2.0, 712.0, -2.0, -2.0, 275.5, -2.0, 720.5, -2.0, -2.0, 41.5, 80.5, 42.0, -2.0, 113.5, 40.5, 38.5, 325.5, -2.0, 68.5, -2.0, -2.0, 81.0, 9.5, -2.0, -2.0, 300.5, -2.0, 715.5, 92.5, -2.0, 110.0, 67.5, -2.0, -2.0, -2.0, 309.5, 302.5, 7.5, 301.5, -2.0, -2.0, -2.0, 747.5, -2.0, 102.0, 86.0, -2.0, 91.0, -2.0, -2.0, -2.0, -2.0, -2.0, -2.0, -2.0, 67.5, 714.5, 309.5, -2.0, 311.5, 127.5, -2.0, 66.5, -2.0, -2.0, 7.5, -2.0, -2.0, 109.5, 66.5, -2.0, 99.5, -2.0, 715.5, -2.0, -2.0, 7.5, 123.5, -2.0, -2.0, -2.0, 68.5, 116.0, 314.0, -2.0, 317.5, -2.0, -2.0, 124.5, -2.0, 12.5, -2.0, -2.0, 7.5, -2.0, -2.0, 272.5, 733.5, 270.5, 131.5, 405.5, 148.0, 107.5, -2.0, -2.0, 79.0, 171.5, 170.5, 107.5, 261.0, -2.0, 106.0, 394.0, 364.0, -2.0, -2.0, -2.0, 263.5, -2.0, -2.0, 169.5, -2.0, 725.5, 724.5, -2.0, -2.0, -2.0, -2.0, 300.5, 64.5, 261.5, -2.0, -2.0, 75.0, -2.0, 15.5, -2.0, -2.0, -2.0, 296.0, -2.0, 13.5, 253.5, 268.5, -2.0, -2.0, 269.5, -2.0, -2.0, -2.0, 417.5, -2.0, 91.5, -2.0, -2.0, -2.0, 22.5, 261.5, 408.5, 684.5, 112.5, 19.5, 309.5, 303.5, -2.0, -2.0, -2.0, -2.0, 253.5, 175.5, 87.0, 76.5, 72.0, -2.0, -2.0, -2.0, 77.5, -2.0, 731.0, -2.0, -2.0, 402.5, 718.5, 330.5, -2.0, 276.5, 395.0, -2.0, -2.0, 734.5, -2.0, 124.5, 123.5, -2.0, 96.5, 376.0, -2.0, -2.0, -2.0, -2.0, 76.5, 330.5, 180.5, 307.5, -2.0, -2.0, 212.5, 318.5, -2.0, 319.5, -2.0, -2.0, 11.5, -2.0, -2.0, 728.5, -2.0, -2.0, -2.0, 174.5, 403.5, 139.0, -2.0, 294.5, -2.0, -2.0, 723.5, 741.5, -2.0, -2.0, -2.0, -2.0, 211.5, -2.0, -2.0, 685.5, -2.0, 205.0, 191.5, -2.0, 369.0, -2.0, -2.0, 206.5, -2.0, 207.5, -2.0, -2.0, 411.5, 410.5, 304.5, -2.0, 723.5, -2.0, 133.0, -2.0, 409.5, -2.0, -2.0, 298.0, -2.0, -2.0, 292.5, 143.5, 420.5, 288.5, -2.0, -2.0, 141.5, 146.5, -2.0, -2.0, -2.0, -2.0, 413.5, 724.5, -2.0, 131.0, -2.0, -2.0, -2.0, -2.0, 136.0, -2.0, -2.0, 13.5, 11.5, 285.5, 32.0, -2.0, 9.5, 712.5, -2.0, -2.0, -2.0, -2.0, 70.5, 329.5, 10.5, 123.5, 325.5, 319.5, -2.0, 106.0, -2.0, 713.5, -2.0, 67.5, 52.0, -2.0, -2.0, 321.5, 69.5, -2.0, -2.0, 111.5, 323.5, -2.0, -2.0, -2.0, -2.0, 743.5, -2.0, 46.5, -2.0, -2.0, 51.5, 325.5, -2.0, -2.0, 54.5, -2.0, 743.5, 328.0, -2.0, -2.0, -2.0, 122.5, -2.0, 123.5, 743.5, -2.0, -2.0, -2.0, 333.5, 49.5, -2.0, 124.0, -2.0, -2.0, -2.0, 374.5, 46.5, 737.5, 265.0, -2.0, -2.0, -2.0, 301.0, 87.0, 15.5, -2.0, -2.0, -2.0, 140.0, -2.0, -2.0, 49.0, 744.5, -2.0, -2.0, 172.5, 736.5, 333.5, -2.0, -2.0, 84.5, -2.0, 330.5, 14.5, -2.0, -2.0, -2.0, -2.0, 121.0, -2.0, 57.5, -2.0, 306.5, -2.0, -2.0, 217.5, 373.0, 193.5, 92.5, 277.5, 359.5, 23.5, 18.5, 222.5, -2.0, -2.0, -2.0, 121.5, -2.0, 356.0, 331.5, -2.0, -2.0, 274.5, -2.0, -2.0, 255.5, 254.5, -2.0, -2.0, -2.0, 318.5, -2.0, 47.5, -2.0, -2.0, 283.5, 14.0, -2.0, 278.0, -2.0, -2.0, 344.5, 185.5, 362.5, 172.5, 115.5, -2.0, -2.0, 24.5, 761.0, 224.0, -2.0, 112.5, 331.5, 307.5, -2.0, -2.0, -2.0, 107.5, 329.5, 292.5, 308.0, -2.0, -2.0, -2.0, -2.0, 635.5, 96.5, 336.0, -2.0, 93.5, -2.0, -2.0, 757.5, 354.5, 322.5, 111.5, 175.0, 108.5, -2.0, -2.0, 110.5, -2.0, 181.5, -2.0, 319.5, -2.0, -2.0, 19.5, 21.0, -2.0, 330.0, -2.0, -2.0, 754.5, -2.0, 23.5, -2.0, -2.0, 109.0, -2.0, 111.5, 303.0, -2.0, -2.0, 342.5, 183.5, -2.0, 753.5, 633.5, -2.0, -2.0, -2.0, 324.5, -2.0, -2.0, 120.5, -2.0, -2.0, -2.0, 334.5, 330.0, -2.0, -2.0, 117.0, 18.5, -2.0, -2.0, -2.0, -2.0, 21.5, 102.5, -2.0, 103.5, -2.0, 255.5, 361.0, 106.5, -2.0, -2.0, -2.0, 125.5, 148.5, -2.0, -2.0, 338.5, 20.5, 108.0, 429.5, -2.0, -2.0, -2.0, 117.5, -2.0, -2.0, 632.5, -2.0, 184.5, 341.5, 121.5, -2.0, 755.5, -2.0, 323.0, -2.0, -2.0, -2.0, -2.0, -2.0, 117.5, 128.5, 363.5, -2.0, -2.0, 734.5, -2.0, -2.0, 122.0, 191.5, 25.5, 189.5, -2.0, 265.5, -2.0, -2.0, -2.0, -2.0, -2.0, 635.5, 632.5, 298.5, -2.0, -2.0, 23.5, 336.0, 186.5, -2.0, 187.5, 634.5, 788.5, 327.5, -2.0, 633.5, 312.5, -2.0, -2.0, -2.0, -2.0, -2.0, 328.5, 108.5, -2.0, 19.5, -2.0, 24.5, -2.0, 22.5, -2.0, -2.0, -2.0, -2.0, 124.0, 25.5, 755.5, -2.0, 21.0, -2.0, -2.0, -2.0, -2.0, 116.0, -2.0, 318.5, -2.0, 638.5, -2.0, -2.0, 30.0, 756.5, 123.5, 347.5, 346.5, -2.0, 183.5, 181.0, -2.0, -2.0, -2.0, -2.0, 166.5, -2.0, -2.0, 22.0, -2.0, -2.0, 632.5, -2.0, -2.0, 360.5, 211.5, 115.5, 322.5, 107.5, -2.0, 316.5, 788.5, 110.5, 313.5, -2.0, -2.0, -2.0, 753.5, -2.0, -2.0, 755.5, -2.0, 319.0, -2.0, -2.0, 196.5, -2.0, -2.0, 231.5, 210.0, 114.5, -2.0, -2.0, -2.0, 632.5, 189.0, 127.5, 251.5, -2.0, -2.0, -2.0, -2.0, 126.5, 337.5, 32.5, 23.5, 754.5, 789.5, 633.5, 22.5, -2.0, 326.5, -2.0, -2.0, 753.5, -2.0, 119.0, -2.0, -2.0, 210.0, -2.0, -2.0, 195.5, 322.5, -2.0, -2.0, 21.5, -2.0, 635.0, -2.0, 198.5, -2.0, 124.0, 790.5, -2.0, -2.0, 789.5, -2.0, -2.0, 317.5, 293.0, -2.0, -2.0, 201.5, 24.5, -2.0, 200.5, -2.0, 329.5, -2.0, 634.5, -2.0, -2.0, -2.0, 332.5, 753.5, 788.5, 331.5, -2.0, 124.5, 35.5, -2.0, -2.0, -2.0, 37.5, 789.5, 337.5, 124.5, -2.0, 206.5, -2.0, -2.0, -2.0, -2.0, -2.0, 754.5, 789.5, 634.5, -2.0, 24.5, 787.5, -2.0, -2.0, -2.0, -2.0, 335.5, 33.5, -2.0, 789.0, -2.0, -2.0, 788.5, -2.0, 36.5, -2.0, 789.5, -2.0, -2.0, -2.0, 756.0, -2.0, -2.0, 22.5, -2.0, 321.0, -2.0, 128.0, -2.0, 760.5, -2.0, 325.5, -2.0, 339.0, -2.0, -2.0, 133.0, 760.5, 320.0, 23.5, 300.5, -2.0, 117.5, 110.5, -2.0, -2.0, -2.0, 30.5, -2.0, -2.0, -2.0, 130.5, -2.0, -2.0, -2.0, 19.5, -2.0, 369.0, 362.5, -2.0, -2.0, -2.0, 92.5, -2.0, 390.5, 218.0, 214.5, 213.5, -2.0, 385.5, -2.0, -2.0, -2.0, 732.5, -2.0, 256.5, 219.5, 383.0, -2.0, -2.0, -2.0, 230.5, -2.0, -2.0, 216.5, -2.0, 223.0, 730.5, -2.0, -2.0, 142.5, 400.5, -2.0, 140.0, -2.0, -2.0, 215.5, -2.0, 269.0, -2.0, -2.0, 350.5, 787.5, 107.0, 217.5, 304.5, 72.5, -2.0, 316.0, 259.5, 301.5, -2.0, 730.0, -2.0, 272.0, -2.0, 303.0, 256.5, -2.0, -2.0, -2.0, 20.5, 731.5, -2.0, -2.0, 82.5, -2.0, 284.5, -2.0, 38.5, -2.0, 290.5, -2.0, 266.5, 307.0, 87.5, -2.0, -2.0, 312.5, 87.5, 264.0, -2.0, -2.0, -2.0, -2.0, 715.5, -2.0, 719.0, -2.0, 721.0, -2.0, -2.0, -2.0, 274.5, 215.5, 716.5, 312.5, 39.5, 304.5, 301.5, -2.0, -2.0, -2.0, -2.0, 734.5, -2.0, -2.0, 81.5, 38.5, 268.0, -2.0, -2.0, 316.5, 310.5, 80.5, -2.0, 308.5, 722.5, 267.5, -2.0, -2.0, -2.0, -2.0, 270.0, -2.0, -2.0, 95.5, 290.0, -2.0, 293.5, -2.0, -2.0, -2.0, 317.5, -2.0, 314.5, 83.5, 39.5, -2.0, -2.0, -2.0, 83.5, -2.0, -2.0, 380.5, -2.0, 717.0, -2.0, -2.0, 721.5, -2.0, -2.0, 723.5, 717.5, 226.5, -2.0, -2.0, 232.0, 89.5, -2.0, 218.5, -2.0, -2.0, 687.5, -2.0, -2.0, 88.5, 690.5, -2.0, -2.0, 238.5, 224.5, 237.5, 380.5, 222.5, 724.5, 19.5, -2.0, -2.0, -2.0, 89.5, -2.0, -2.0, 220.5, -2.0, -2.0, -2.0, -2.0, -2.0, 324.0, -2.0, 739.5, 243.5, 356.5, 142.5, 719.5, -2.0, -2.0, -2.0, -2.0, -2.0, 131.5, -2.0, 721.5, -2.0, 147.0, -2.0, 262.5, -2.0, -2.0, 337.5, 294.0, 280.5, -2.0, -2.0, 332.5, 321.5, 788.5, 321.5, -2.0, 323.5, -2.0, -2.0, -2.0, -2.0, 225.5, 341.5, 336.5, 224.5, 122.5, 754.5, -2.0, -2.0, 753.5, 339.5, -2.0, 26.5, -2.0, -2.0, -2.0, 24.5, -2.0, 634.5, -2.0, 25.5, -2.0, 789.5, -2.0, -2.0, -2.0, 222.0, -2.0, -2.0, -2.0, -2.0, 193.5, -2.0, 150.5, 221.5, 404.5, 309.0, -2.0, -2.0, 206.5, -2.0, -2.0, -2.0, 315.5, 208.5, 314.5, 228.5, -2.0, -2.0, 196.5, -2.0, -2.0, -2.0, 226.5, -2.0, -2.0], "feature": [6, 0, 2, 1, 3, 3, 3, 3, 7, -2, 2, -2, 8, -2, -2, 6, -2, -2, 4, 3, 5, -2, 7, -2, 7, -2, -2, 6, 7, 4, -2, 5, -2, 4, -2, -2, 7, -2, 7, 4, 0, -2, -2, -2, -2, -2, -2, -2, -2, 0, 4, -2, -2, -2, 5, 1, 8, 3, 5, 1, -2, -2, 4, 5, -2, -2, -2, 1, 4, 4, 7, 1, -2, -2, 3, 4, -2, 3, -2, -2, 7, 2, -2, -2, 5, 2, -2, -2, -2, 6, 5, 6, -2, -2, 4, -2, 5, -2, 5, -2, -2, 7, -2, -2, 2, -2, -2, 6, 4, -2, 5, -2, -2, 3, -2, -2, 6, -2, 2, -2, 3, -2, -2, 4, -2, 4, 5, -2, 0, -2, -2, 0, -2, -2, 7, 5, -2, 7, -2, 0, -2, -2, 1, -2, -2, 2, 4, 3, 2, -2, 6, -2, -2, -2, 6, 0, -2, -2, 6, 2, -2, 0, 5, -2, -2, -2, -2, 3, 1, 2, 4, 6, -2, 5, 4, -2, -2, -2, 6, -2, 4, 5, -2, -2, -2, -2, -2, -2, 7, 5, 0, 6, 0, 3, 5, 2, 6, 7, -2, 0, -2, -2, -2, 4, 4, 1, -2, -2, 3, 1, -2, -2, -2, 6, -2, -2, -2, 5, -2, -2, -2, 5, 4, -2, 7, 2, 6, -2, 1, 3, 6, -2, -2, -2, -2, 6, -2, -2, 8, 0, 2, 6, -2, -2, -2, -2, 7, -2, -2, 6, 7, 3, -2, 5, -2, -2, 7, -2, 5, -2, -2, 6, -2, 3, -2, 3, 0, 8, -2, -2, -2, -2, 3, 3, -2, -2, 2, 8, -2, -2, 3, 6, -2, 5, -2, -2, 3, -2, 4, -2, -2, 3, 6, 3, 6, 3, -2, 2, -2, 7, 5, -2, -2, 5, 7, 6, 6, -2, 5, 7, -2, -2, -2, -2, -2, -2, -2, 3, 4, 6, -2, 5, 6, -2, -2, -2, 7, -2, 5, -2, -2, 6, -2, 5, -2, -2, 3, 2, 7, -2, 7, 3, 3, 6, -2, 2, -2, -2, 7, 0, -2, -2, 6, -2, 5, 7, -2, 7, 2, -2, -2, -2, 6, 6, 1, 6, -2, -2, -2, 4, -2, 7, 7, -2, 7, -2, -2, -2, -2, -2, -2, -2, 2, 5, 6, -2, 6, 7, -2, 2, -2, -2, 1, -2, -2, 7, 2, -2, 7, -2, 5, -2, -2, 1, 7, -2, -2, -2, 2, 7, 6, -2, 6, -2, -2, 7, -2, 8, -2, -2, 1, -2, -2, 3, 4, 5, 2, 6, 3, 3, -2, -2, 7, 3, 3, 2, 5, -2, 2, 6, 6, -2, -2, -2, 5, -2, -2, 3, -2, 4, 4, -2, -2, -2, -2, 6, 7, 5, -2, -2, 7, -2, 8, -2, -2, -2, 6, -2, 0, 3, 5, -2, -2, 5, -2, -2, -2, 6, -2, 2, -2, -2, -2, 8, 3, 6, 5, 3, 8, 5, 5, -2, -2, -2, -2, 3, 0, 0, 7, 7, -2, -2, -2, 2, -2, 4, -2, -2, 6, 4, 6, -2, 5, 6, -2, -2, 0, -2, 3, 3, -2, 2, 6, -2, -2, -2, -2, 2, 6, 0, 6, -2, -2, 0, 6, -2, 6, -2, -2, 1, -2, -2, 4, -2, -2, -2, 3, 6, 3, -2, 5, -2, -2, 4, 0, -2, -2, -2, -2, 0, -2, -2, 5, -2, 3, 3, -2, 6, -2, -2, 7, -2, 7, -2, -2, 6, 6, 5, -2, 4, -2, 3, -2, 6, -2, -2, 5, -2, -2, 5, 3, 6, 5, -2, -2, 3, 2, -2, -2, -2, -2, 6, 4, -2, 3, -2, -2, -2, -2, 3, -2, -2, 8, 8, 6, 7, -2, 0, 5, -2, -2, -2, -2, 2, 6, 0, 7, 6, 6, -2, 7, -2, 5, -2, 2, 3, -2, -2, 6, 2, -2, -2, 7, 6, -2, -2, -2, -2, 4, -2, 3, -2, -2, 3, 6, -2, -2, 3, -2, 4, 6, -2, -2, -2, 7, -2, 7, 4, -2, -2, -2, 6, 3, -2, 7, -2, -2, -2, 5, 7, 4, 5, -2, -2, -2, 6, 7, 8, -2, -2, -2, 3, -2, -2, 0, 4, -2, -2, 7, 4, 6, -2, -2, 3, -2, 6, 8, -2, -2, -2, -2, 2, -2, 7, -2, 6, -2, -2, 0, 6, 0, 0, 7, 6, 8, 8, 7, -2, -2, -2, 2, -2, 6, 6, -2, -2, 7, -2, -2, 7, 7, -2, -2, -2, 6, -2, 0, -2, -2, 6, 1, -2, 6, -2, -2, 7, 0, 6, 5, 2, -2, -2, 8, 4, 7, -2, 2, 6, 7, -2, -2, -2, 3, 6, 6, 7, -2, -2, -2, -2, 5, 0, 6, -2, 0, -2, -2, 4, 6, 6, 3, 0, 3, -2, -2, 3, -2, 0, -2, 6, -2, -2, 1, 8, -2, 7, -2, -2, 4, -2, 8, -2, -2, 3, -2, 3, 7, -2, -2, 7, 0, -2, 4, 5, -2, -2, -2, 6, -2, -2, 3, -2, -2, -2, 7, 7, -2, -2, 3, 1, -2, -2, -2, -2, 1, 0, -2, 0, -2, 7, 6, 0, -2, -2, -2, 2, 0, -2, -2, 7, 1, 3, 5, -2, -2, -2, 3, -2, -2, 5, -2, 0, 7, 3, -2, 4, -2, 6, -2, -2, -2, -2, -2, 3, 2, 6, -2, -2, 4, -2, -2, 0, 5, 8, 5, -2, 7, -2, -2, -2, -2, -2, 5, 5, 6, -2, -2, 8, 7, 0, -2, 0, 5, 2, 7, -2, 5, 6, -2, -2, -2, -2, -2, 7, 3, -2, 1, -2, 1, -2, 8, -2, -2, -2, -2, 3, 1, 4, -2, 1, -2, -2, -2, -2, 3, -2, 6, -2, 5, -2, -2, 8, 4, 3, 7, 7, -2, 0, 0, -2, -2, -2, -2, 0, -2, -2, 1, -2, -2, 5, -2, -2, 7, 0, 3, 6, 3, -2, 6, 2, 3, 6, -2, -2, -2, 4, -2, -2, 4, -2, 6, -2, -2, 0, -2, -2, 7, 5, 2, -2, -2, -2, 5, 3, 2, 5, -2, -2, -2, -2, 3, 6, 1, 1, 4, 2, 5, 1, -2, 6, -2, -2, 4, -2, 3, -2, -2, 0, -2, -2, 0, 6, -2, -2, 1, -2, 5, -2, 0, -2, 3, 2, -2, -2, 2, -2, -2, 6, 7, -2, -2, 0, 1, -2, 0, -2, 6, -2, 5, -2, -2, -2, 6, 4, 2, 6, -2, 3, 1, -2, -2, -2, 1, 2, 7, 3, -2, 0, -2, -2, -2, -2, -2, 4, 2, 5, -2, 8, 2, -2, -2, -2, -2, 7, 1, -2, 2, -2, -2, 2, -2, 1, -2, 2, -2, -2, -2, 4, -2, -2, 1, -2, 6, -2, 3, -2, 4, -2, 6, -2, 7, -2, -2, 3, 4, 6, 1, 6, -2, 3, 3, -2, -2, -2, 8, -2, -2, -2, 3, -2, -2, -2, 8, -2, 7, 7, -2, -2, -2, 3, -2, 6, 5, 7, 7, -2, 6, -2, -2, -2, 4, -2, 7, 5, 6, -2, -2, -2, 5, -2, -2, 7, -2, 7, 4, -2, -2, 3, 6, -2, 3, -2, -2, 0, -2, 7, -2, -2, 7, 2, 2, 3, 6, 2, -2, 5, 7, 5, -2, 0, -2, 6, -2, 5, 7, -2, -2, -2, 8, 0, -2, -2, 2, -2, 6, -2, 3, -2, 6, -2, 7, 5, 2, -2, -2, 5, 2, 7, -2, -2, -2, -2, 4, -2, 4, -2, 4, -2, -2, -2, 7, 3, 4, 5, 3, 5, 5, -2, -2, -2, -2, 0, -2, -2, 2, 3, 5, -2, -2, 6, 5, 2, -2, 5, 4, 7, -2, -2, -2, -2, 7, -2, -2, 3, 5, -2, 5, -2, -2, -2, 5, -2, 6, 2, 3, -2, -2, -2, 2, -2, -2, 6, -2, 4, -2, -2, 4, -2, -2, 4, 4, 7, -2, -2, 7, 2, -2, 3, -2, -2, 5, -2, -2, 2, 5, -2, -2, 7, 3, 7, 6, 3, 4, 8, -2, -2, -2, 2, -2, -2, 3, -2, -2, -2, -2, -2, 6, -2, 0, 7, 6, 3, 4, -2, -2, -2, -2, -2, 2, -2, 4, -2, 3, -2, 7, -2, -2, 6, 7, 7, -2, -2, 7, 6, 2, 7, -2, 7, -2, -2, -2, -2, 0, 7, 6, 0, 3, 4, -2, -2, 4, 7, -2, 1, -2, -2, -2, 8, -2, 5, -2, 8, -2, 2, -2, -2, -2, 0, -2, -2, -2, -2, 5, -2, 3, 0, 7, 6, -2, -2, 5, -2, -2, -2, 6, 5, 6, 0, -2, -2, 5, -2, -2, -2, 0, -2, -2], "classes_": [1, 2, 3, 4, 5, 6], "value": [[1039.0, 1593.0, 1886.0, 1048.0, 63.0, 322.0], [344.0, 1365.0, 156.0, 5.0, 0.0, 57.0], [111.0, 1326.0, 69.0, 1.0, 0.0, 47.0], [60.0, 14.0, 14.0, 0.0, 0.0, 45.0], [2.0, 14.0, 13.0, 0.0, 0.0, 45.0], [2.0, 1.0, 13.0, 0.0, 0.0, 45.0], [2.0, 1.0, 9.0, 0.0, 0.0, 45.0], [2.0, 1.0, 2.0, 0.0, 0.0, 4.0], [0.0, 1.0, 2.0, 0.0, 0.0, 3.0], [0.0, 1.0, 0.0, 0.0, 0.0, 0.0], [0.0, 0.0, 2.0, 0.0, 0.0, 3.0], [0.0, 0.0, 0.0, 0.0, 0.0, 2.0], [0.0, 0.0, 2.0, 0.0, 0.0, 1.0], [0.0, 0.0, 2.0, 0.0, 0.0, 0.0], [0.0, 0.0, 0.0, 0.0, 0.0, 1.0], [2.0, 0.0, 0.0, 0.0, 0.0, 1.0], [0.0, 0.0, 0.0, 0.0, 0.0, 1.0], [2.0, 0.0, 0.0, 0.0, 0.0, 0.0], [0.0, 0.0, 7.0, 0.0, 0.0, 41.0], [0.0, 0.0, 6.0, 0.0, 0.0, 41.0], [0.0, 0.0, 1.0, 0.0, 0.0, 23.0], [0.0, 0.0, 0.0, 0.0, 0.0, 18.0], [0.0, 0.0, 1.0, 0.0, 0.0, 5.0], [0.0, 0.0, 0.0, 0.0, 0.0, 4.0], [0.0, 0.0, 1.0, 0.0, 0.0, 1.0], [0.0, 0.0, 1.0, 0.0, 0.0, 0.0], [0.0, 0.0, 0.0, 0.0, 0.0, 1.0], [0.0, 0.0, 5.0, 0.0, 0.0, 18.0], [0.0, 0.0, 5.0, 0.0, 0.0, 10.0], [0.0, 0.0, 3.0, 0.0, 0.0, 2.0], [0.0, 0.0, 0.0, 0.0, 0.0, 1.0], [0.0, 0.0, 3.0, 0.0, 0.0, 1.0], [0.0, 0.0, 2.0, 0.0, 0.0, 0.0], [0.0, 0.0, 1.0, 0.0, 0.0, 1.0], [0.0, 0.0, 0.0, 0.0, 0.0, 1.0], [0.0, 0.0, 1.0, 0.0, 0.0, 0.0], [0.0, 0.0, 2.0, 0.0, 0.0, 8.0], [0.0, 0.0, 0.0, 0.0, 0.0, 5.0], [0.0, 0.0, 2.0, 0.0, 0.0, 3.0], [0.0, 0.0, 2.0, 0.0, 0.0, 1.0], [0.0, 0.0, 1.0, 0.0, 0.0, 1.0], [0.0, 0.0, 1.0, 0.0, 0.0, 0.0], [0.0, 0.0, 0.0, 0.0, 0.0, 1.0], [0.0, 0.0, 1.0, 0.0, 0.0, 0.0], [0.0, 0.0, 0.0, 0.0, 0.0, 2.0], [0.0, 0.0, 0.0, 0.0, 0.0, 8.0], [0.0, 0.0, 1.0, 0.0, 0.0, 0.0], [0.0, 0.0, 4.0, 0.0, 0.0, 0.0], [0.0, 13.0, 0.0, 0.0, 0.0, 0.0], [58.0, 0.0, 1.0, 0.0, 0.0, 0.0], [1.0, 0.0, 1.0, 0.0, 0.0, 0.0], [1.0, 0.0, 0.0, 0.0, 0.0, 0.0], [0.0, 0.0, 1.0, 0.0, 0.0, 0.0], [57.0, 0.0, 0.0, 0.0, 0.0, 0.0], [51.0, 1312.0, 55.0, 1.0, 0.0, 2.0], [17.0, 1312.0, 37.0, 1.0, 0.0, 2.0], [13.0, 1310.0, 33.0, 1.0, 0.0, 1.0], [13.0, 1299.0, 23.0, 1.0, 0.0, 1.0], [5.0, 11.0, 1.0, 1.0, 0.0, 1.0], [5.0, 0.0, 0.0, 0.0, 0.0, 1.0], [5.0, 0.0, 0.0, 0.0, 0.0, 0.0], [0.0, 0.0, 0.0, 0.0, 0.0, 1.0], [0.0, 11.0, 1.0, 1.0, 0.0, 0.0], [0.0, 0.0, 1.0, 1.0, 0.0, 0.0], [0.0, 0.0, 0.0, 1.0, 0.0, 0.0], [0.0, 0.0, 1.0, 0.0, 0.0, 0.0], [0.0, 11.0, 0.0, 0.0, 0.0, 0.0], [8.0, 1288.0, 22.0, 0.0, 0.0, 0.0], [8.0, 1255.0, 14.0, 0.0, 0.0, 0.0], [8.0, 1247.0, 10.0, 0.0, 0.0, 0.0], [8.0, 117.0, 7.0, 0.0, 0.0, 0.0], [8.0, 2.0, 0.0, 0.0, 0.0, 0.0], [8.0, 0.0, 0.0, 0.0, 0.0, 0.0], [0.0, 2.0, 0.0, 0.0, 0.0, 0.0], [0.0, 115.0, 7.0, 0.0, 0.0, 0.0], [0.0, 6.0, 5.0, 0.0, 0.0, 0.0], [0.0, 5.0, 0.0, 0.0, 0.0, 0.0], [0.0, 1.0, 5.0, 0.0, 0.0, 0.0], [0.0, 1.0, 0.0, 0.0, 0.0, 0.0], [0.0, 0.0, 5.0, 0.0, 0.0, 0.0], [0.0, 109.0, 2.0, 0.0, 0.0, 0.0], [0.0, 1.0, 1.0, 0.0, 0.0, 0.0], [0.0, 0.0, 1.0, 0.0, 0.0, 0.0], [0.0, 1.0, 0.0, 0.0, 0.0, 0.0], [0.0, 108.0, 1.0, 0.0, 0.0, 0.0], [0.0, 6.0, 1.0, 0.0, 0.0, 0.0], [0.0, 6.0, 0.0, 0.0, 0.0, 0.0], [0.0, 0.0, 1.0, 0.0, 0.0, 0.0], [0.0, 102.0, 0.0, 0.0, 0.0, 0.0], [0.0, 1130.0, 3.0, 0.0, 0.0, 0.0], [0.0, 1127.0, 2.0, 0.0, 0.0, 0.0], [0.0, 27.0, 1.0, 0.0, 0.0, 0.0], [0.0, 0.0, 1.0, 0.0, 0.0, 0.0], [0.0, 27.0, 0.0, 0.0, 0.0, 0.0], [0.0, 1100.0, 1.0, 0.0, 0.0, 0.0], [0.0, 877.0, 0.0, 0.0, 0.0, 0.0], [0.0, 223.0, 1.0, 0.0, 0.0, 0.0], [0.0, 220.0, 0.0, 0.0, 0.0, 0.0], [0.0, 3.0, 1.0, 0.0, 0.0, 0.0], [0.0, 0.0, 1.0, 0.0, 0.0, 0.0], [0.0, 3.0, 0.0, 0.0, 0.0, 0.0], [0.0, 3.0, 1.0, 0.0, 0.0, 0.0], [0.0, 0.0, 1.0, 0.0, 0.0, 0.0], [0.0, 3.0, 0.0, 0.0, 0.0, 0.0], [0.0, 8.0, 4.0, 0.0, 0.0, 0.0], [0.0, 0.0, 4.0, 0.0, 0.0, 0.0], [0.0, 8.0, 0.0, 0.0, 0.0, 0.0], [0.0, 33.0, 8.0, 0.0, 0.0, 0.0], [0.0, 32.0, 1.0, 0.0, 0.0, 0.0], [0.0, 28.0, 0.0, 0.0, 0.0, 0.0], [0.0, 4.0, 1.0, 0.0, 0.0, 0.0], [0.0, 4.0, 0.0, 0.0, 0.0, 0.0], [0.0, 0.0, 1.0, 0.0, 0.0, 0.0], [0.0, 1.0, 7.0, 0.0, 0.0, 0.0], [0.0, 1.0, 0.0, 0.0, 0.0, 0.0], [0.0, 0.0, 7.0, 0.0, 0.0, 0.0], [0.0, 11.0, 10.0, 0.0, 0.0, 0.0], [0.0, 10.0, 0.0, 0.0, 0.0, 0.0], [0.0, 1.0, 10.0, 0.0, 0.0, 0.0], [0.0, 0.0, 9.0, 0.0, 0.0, 0.0], [0.0, 1.0, 1.0, 0.0, 0.0, 0.0], [0.0, 0.0, 1.0, 0.0, 0.0, 0.0], [0.0, 1.0, 0.0, 0.0, 0.0, 0.0], [4.0, 2.0, 4.0, 0.0, 0.0, 1.0], [0.0, 2.0, 0.0, 0.0, 0.0, 0.0], [4.0, 0.0, 4.0, 0.0, 0.0, 1.0], [2.0, 0.0, 4.0, 0.0, 0.0, 0.0], [0.0, 0.0, 3.0, 0.0, 0.0, 0.0], [2.0, 0.0, 1.0, 0.0, 0.0, 0.0], [2.0, 0.0, 0.0, 0.0, 0.0, 0.0], [0.0, 0.0, 1.0, 0.0, 0.0, 0.0], [2.0, 0.0, 0.0, 0.0, 0.0, 1.0], [0.0, 0.0, 0.0, 0.0, 0.0, 1.0], [2.0, 0.0, 0.0, 0.0, 0.0, 0.0], [34.0, 0.0, 18.0, 0.0, 0.0, 0.0], [33.0, 0.0, 2.0, 0.0, 0.0, 0.0], [29.0, 0.0, 0.0, 0.0, 0.0, 0.0], [4.0, 0.0, 2.0, 0.0, 0.0, 0.0], [3.0, 0.0, 0.0, 0.0, 0.0, 0.0], [1.0, 0.0, 2.0, 0.0, 0.0, 0.0], [0.0, 0.0, 2.0, 0.0, 0.0, 0.0], [1.0, 0.0, 0.0, 0.0, 0.0, 0.0], [1.0, 0.0, 16.0, 0.0, 0.0, 0.0], [0.0, 0.0, 16.0, 0.0, 0.0, 0.0], [1.0, 0.0, 0.0, 0.0, 0.0, 0.0], [233.0, 39.0, 87.0, 4.0, 0.0, 10.0], [3.0, 3.0, 70.0, 4.0, 0.0, 10.0], [0.0, 3.0, 67.0, 1.0, 0.0, 0.0], [0.0, 3.0, 2.0, 1.0, 0.0, 0.0], [0.0, 3.0, 0.0, 0.0, 0.0, 0.0], [0.0, 0.0, 2.0, 1.0, 0.0, 0.0], [0.0, 0.0, 2.0, 0.0, 0.0, 0.0], [0.0, 0.0, 0.0, 1.0, 0.0, 0.0], [0.0, 0.0, 65.0, 0.0, 0.0, 0.0], [3.0, 0.0, 3.0, 3.0, 0.0, 10.0], [3.0, 0.0, 0.0, 2.0, 0.0, 0.0], [3.0, 0.0, 0.0, 0.0, 0.0, 0.0], [0.0, 0.0, 0.0, 2.0, 0.0, 0.0], [0.0, 0.0, 3.0, 1.0, 0.0, 10.0], [0.0, 0.0, 1.0, 1.0, 0.0, 10.0], [0.0, 0.0, 1.0, 0.0, 0.0, 0.0], [0.0, 0.0, 0.0, 1.0, 0.0, 10.0], [0.0, 0.0, 0.0, 1.0, 0.0, 2.0], [0.0, 0.0, 0.0, 1.0, 0.0, 0.0], [0.0, 0.0, 0.0, 0.0, 0.0, 2.0], [0.0, 0.0, 0.0, 0.0, 0.0, 8.0], [0.0, 0.0, 2.0, 0.0, 0.0, 0.0], [230.0, 36.0, 17.0, 0.0, 0.0, 0.0], [230.0, 0.0, 17.0, 0.0, 0.0, 0.0], [230.0, 0.0, 14.0, 0.0, 0.0, 0.0], [62.0, 0.0, 14.0, 0.0, 0.0, 0.0], [3.0, 0.0, 12.0, 0.0, 0.0, 0.0], [2.0, 0.0, 0.0, 0.0, 0.0, 0.0], [1.0, 0.0, 12.0, 0.0, 0.0, 0.0], [1.0, 0.0, 1.0, 0.0, 0.0, 0.0], [1.0, 0.0, 0.0, 0.0, 0.0, 0.0], [0.0, 0.0, 1.0, 0.0, 0.0, 0.0], [0.0, 0.0, 11.0, 0.0, 0.0, 0.0], [59.0, 0.0, 2.0, 0.0, 0.0, 0.0], [0.0, 0.0, 1.0, 0.0, 0.0, 0.0], [59.0, 0.0, 1.0, 0.0, 0.0, 0.0], [5.0, 0.0, 1.0, 0.0, 0.0, 0.0], [0.0, 0.0, 1.0, 0.0, 0.0, 0.0], [5.0, 0.0, 0.0, 0.0, 0.0, 0.0], [54.0, 0.0, 0.0, 0.0, 0.0, 0.0], [168.0, 0.0, 0.0, 0.0, 0.0, 0.0], [0.0, 0.0, 3.0, 0.0, 0.0, 0.0], [0.0, 36.0, 0.0, 0.0, 0.0, 0.0], [695.0, 228.0, 1730.0, 1043.0, 63.0, 265.0], [243.0, 33.0, 93.0, 973.0, 63.0, 184.0], [175.0, 25.0, 28.0, 54.0, 61.0, 18.0], [13.0, 25.0, 25.0, 30.0, 59.0, 12.0], [0.0, 17.0, 0.0, 0.0, 56.0, 2.0], [0.0, 6.0, 0.0, 0.0, 56.0, 2.0], [0.0, 6.0, 0.0, 0.0, 55.0, 0.0], [0.0, 6.0, 0.0, 0.0, 42.0, 0.0], [0.0, 1.0, 0.0, 0.0, 20.0, 0.0], [0.0, 1.0, 0.0, 0.0, 5.0, 0.0], [0.0, 0.0, 0.0, 0.0, 3.0, 0.0], [0.0, 1.0, 0.0, 0.0, 2.0, 0.0], [0.0, 1.0, 0.0, 0.0, 0.0, 0.0], [0.0, 0.0, 0.0, 0.0, 2.0, 0.0], [0.0, 0.0, 0.0, 0.0, 15.0, 0.0], [0.0, 5.0, 0.0, 0.0, 22.0, 0.0], [0.0, 3.0, 0.0, 0.0, 21.0, 0.0], [0.0, 2.0, 0.0, 0.0, 3.0, 0.0], [0.0, 2.0, 0.0, 0.0, 0.0, 0.0], [0.0, 0.0, 0.0, 0.0, 3.0, 0.0], [0.0, 1.0, 0.0, 0.0, 18.0, 0.0], [0.0, 1.0, 0.0, 0.0, 3.0, 0.0], [0.0, 0.0, 0.0, 0.0, 3.0, 0.0], [0.0, 1.0, 0.0, 0.0, 0.0, 0.0], [0.0, 0.0, 0.0, 0.0, 15.0, 0.0], [0.0, 2.0, 0.0, 0.0, 1.0, 0.0], [0.0, 0.0, 0.0, 0.0, 1.0, 0.0], [0.0, 2.0, 0.0, 0.0, 0.0, 0.0], [0.0, 0.0, 0.0, 0.0, 13.0, 0.0], [0.0, 0.0, 0.0, 0.0, 1.0, 2.0], [0.0, 0.0, 0.0, 0.0, 0.0, 2.0], [0.0, 0.0, 0.0, 0.0, 1.0, 0.0], [0.0, 11.0, 0.0, 0.0, 0.0, 0.0], [13.0, 8.0, 25.0, 30.0, 3.0, 10.0], [11.0, 8.0, 22.0, 2.0, 2.0, 1.0], [0.0, 5.0, 0.0, 0.0, 0.0, 0.0], [11.0, 3.0, 22.0, 2.0, 2.0, 1.0], [0.0, 3.0, 15.0, 2.0, 2.0, 1.0], [0.0, 3.0, 1.0, 2.0, 2.0, 0.0], [0.0, 2.0, 0.0, 0.0, 0.0, 0.0], [0.0, 1.0, 1.0, 2.0, 2.0, 0.0], [0.0, 1.0, 1.0, 2.0, 0.0, 0.0], [0.0, 1.0, 0.0, 2.0, 0.0, 0.0], [0.0, 0.0, 0.0, 2.0, 0.0, 0.0], [0.0, 1.0, 0.0, 0.0, 0.0, 0.0], [0.0, 0.0, 1.0, 0.0, 0.0, 0.0], [0.0, 0.0, 0.0, 0.0, 2.0, 0.0], [0.0, 0.0, 14.0, 0.0, 0.0, 1.0], [0.0, 0.0, 0.0, 0.0, 0.0, 1.0], [0.0, 0.0, 14.0, 0.0, 0.0, 0.0], [11.0, 0.0, 7.0, 0.0, 0.0, 0.0], [10.0, 0.0, 3.0, 0.0, 0.0, 0.0], [10.0, 0.0, 2.0, 0.0, 0.0, 0.0], [2.0, 0.0, 2.0, 0.0, 0.0, 0.0], [2.0, 0.0, 0.0, 0.0, 0.0, 0.0], [0.0, 0.0, 2.0, 0.0, 0.0, 0.0], [8.0, 0.0, 0.0, 0.0, 0.0, 0.0], [0.0, 0.0, 1.0, 0.0, 0.0, 0.0], [1.0, 0.0, 4.0, 0.0, 0.0, 0.0], [1.0, 0.0, 0.0, 0.0, 0.0, 0.0], [0.0, 0.0, 4.0, 0.0, 0.0, 0.0], [2.0, 0.0, 3.0, 28.0, 1.0, 9.0], [1.0, 0.0, 3.0, 2.0, 1.0, 5.0], [0.0, 0.0, 3.0, 0.0, 0.0, 5.0], [0.0, 0.0, 0.0, 0.0, 0.0, 4.0], [0.0, 0.0, 3.0, 0.0, 0.0, 1.0], [0.0, 0.0, 0.0, 0.0, 0.0, 1.0], [0.0, 0.0, 3.0, 0.0, 0.0, 0.0], [1.0, 0.0, 0.0, 2.0, 1.0, 0.0], [0.0, 0.0, 0.0, 2.0, 0.0, 0.0], [1.0, 0.0, 0.0, 0.0, 1.0, 0.0], [1.0, 0.0, 0.0, 0.0, 0.0, 0.0], [0.0, 0.0, 0.0, 0.0, 1.0, 0.0], [1.0, 0.0, 0.0, 26.0, 0.0, 4.0], [0.0, 0.0, 0.0, 24.0, 0.0, 0.0], [1.0, 0.0, 0.0, 2.0, 0.0, 4.0], [1.0, 0.0, 0.0, 0.0, 0.0, 0.0], [0.0, 0.0, 0.0, 2.0, 0.0, 4.0], [0.0, 0.0, 0.0, 1.0, 0.0, 4.0], [0.0, 0.0, 0.0, 1.0, 0.0, 1.0], [0.0, 0.0, 0.0, 0.0, 0.0, 1.0], [0.0, 0.0, 0.0, 1.0, 0.0, 0.0], [0.0, 0.0, 0.0, 0.0, 0.0, 3.0], [0.0, 0.0, 0.0, 1.0, 0.0, 0.0], [162.0, 0.0, 3.0, 24.0, 2.0, 6.0], [0.0, 0.0, 0.0, 24.0, 0.0, 5.0], [0.0, 0.0, 0.0, 0.0, 0.0, 5.0], [0.0, 0.0, 0.0, 24.0, 0.0, 0.0], [162.0, 0.0, 3.0, 0.0, 2.0, 1.0], [0.0, 0.0, 1.0, 0.0, 2.0, 0.0], [0.0, 0.0, 1.0, 0.0, 0.0, 0.0], [0.0, 0.0, 0.0, 0.0, 2.0, 0.0], [162.0, 0.0, 2.0, 0.0, 0.0, 1.0], [1.0, 0.0, 1.0, 0.0, 0.0, 1.0], [0.0, 0.0, 1.0, 0.0, 0.0, 0.0], [1.0, 0.0, 0.0, 0.0, 0.0, 1.0], [1.0, 0.0, 0.0, 0.0, 0.0, 0.0], [0.0, 0.0, 0.0, 0.0, 0.0, 1.0], [161.0, 0.0, 1.0, 0.0, 0.0, 0.0], [154.0, 0.0, 0.0, 0.0, 0.0, 0.0], [7.0, 0.0, 1.0, 0.0, 0.0, 0.0], [7.0, 0.0, 0.0, 0.0, 0.0, 0.0], [0.0, 0.0, 1.0, 0.0, 0.0, 0.0], [68.0, 8.0, 65.0, 919.0, 2.0, 166.0], [5.0, 1.0, 34.0, 51.0, 0.0, 92.0], [0.0, 1.0, 10.0, 12.0, 0.0, 48.0], [0.0, 1.0, 0.0, 11.0, 0.0, 28.0], [0.0, 1.0, 0.0, 11.0, 0.0, 13.0], [0.0, 0.0, 0.0, 0.0, 0.0, 5.0], [0.0, 1.0, 0.0, 11.0, 0.0, 8.0], [0.0, 0.0, 0.0, 0.0, 0.0, 3.0], [0.0, 1.0, 0.0, 11.0, 0.0, 5.0], [0.0, 1.0, 0.0, 0.0, 0.0, 1.0], [0.0, 1.0, 0.0, 0.0, 0.0, 0.0], [0.0, 0.0, 0.0, 0.0, 0.0, 1.0], [0.0, 0.0, 0.0, 11.0, 0.0, 4.0], [0.0, 0.0, 0.0, 11.0, 0.0, 3.0], [0.0, 0.0, 0.0, 4.0, 0.0, 3.0], [0.0, 0.0, 0.0, 2.0, 0.0, 3.0], [0.0, 0.0, 0.0, 0.0, 0.0, 1.0], [0.0, 0.0, 0.0, 2.0, 0.0, 2.0], [0.0, 0.0, 0.0, 1.0, 0.0, 2.0], [0.0, 0.0, 0.0, 1.0, 0.0, 1.0], [0.0, 0.0, 0.0, 0.0, 0.0, 1.0], [0.0, 0.0, 0.0, 1.0, 0.0, 0.0], [0.0, 0.0, 0.0, 2.0, 0.0, 0.0], [0.0, 0.0, 0.0, 7.0, 0.0, 0.0], [0.0, 0.0, 0.0, 0.0, 0.0, 1.0], [0.0, 0.0, 0.0, 0.0, 0.0, 15.0], [0.0, 0.0, 10.0, 1.0, 0.0, 20.0], [0.0, 0.0, 9.0, 1.0, 0.0, 6.0], [0.0, 0.0, 2.0, 1.0, 0.0, 5.0], [0.0, 0.0, 0.0, 0.0, 0.0, 4.0], [0.0, 0.0, 2.0, 1.0, 0.0, 1.0], [0.0, 0.0, 2.0, 0.0, 0.0, 1.0], [0.0, 0.0, 2.0, 0.0, 0.0, 0.0], [0.0, 0.0, 0.0, 0.0, 0.0, 1.0], [0.0, 0.0, 0.0, 1.0, 0.0, 0.0], [0.0, 0.0, 7.0, 0.0, 0.0, 1.0], [0.0, 0.0, 6.0, 0.0, 0.0, 0.0], [0.0, 0.0, 1.0, 0.0, 0.0, 1.0], [0.0, 0.0, 1.0, 0.0, 0.0, 0.0], [0.0, 0.0, 0.0, 0.0, 0.0, 1.0], [0.0, 0.0, 1.0, 0.0, 0.0, 14.0], [0.0, 0.0, 0.0, 0.0, 0.0, 13.0], [0.0, 0.0, 1.0, 0.0, 0.0, 1.0], [0.0, 0.0, 0.0, 0.0, 0.0, 1.0], [0.0, 0.0, 1.0, 0.0, 0.0, 0.0], [5.0, 0.0, 24.0, 39.0, 0.0, 44.0], [2.0, 0.0, 5.0, 31.0, 0.0, 27.0], [2.0, 0.0, 2.0, 31.0, 0.0, 27.0], [0.0, 0.0, 0.0, 8.0, 0.0, 0.0], [2.0, 0.0, 2.0, 23.0, 0.0, 27.0], [2.0, 0.0, 2.0, 17.0, 0.0, 27.0], [2.0, 0.0, 2.0, 17.0, 0.0, 20.0], [0.0, 0.0, 0.0, 3.0, 0.0, 12.0], [0.0, 0.0, 0.0, 0.0, 0.0, 11.0], [0.0, 0.0, 0.0, 3.0, 0.0, 1.0], [0.0, 0.0, 0.0, 0.0, 0.0, 1.0], [0.0, 0.0, 0.0, 3.0, 0.0, 0.0], [2.0, 0.0, 2.0, 14.0, 0.0, 8.0], [1.0, 0.0, 0.0, 0.0, 0.0, 2.0], [1.0, 0.0, 0.0, 0.0, 0.0, 0.0], [0.0, 0.0, 0.0, 0.0, 0.0, 2.0], [1.0, 0.0, 2.0, 14.0, 0.0, 6.0], [0.0, 0.0, 0.0, 0.0, 0.0, 1.0], [1.0, 0.0, 2.0, 14.0, 0.0, 5.0], [0.0, 0.0, 2.0, 3.0, 0.0, 1.0], [0.0, 0.0, 0.0, 0.0, 0.0, 1.0], [0.0, 0.0, 2.0, 3.0, 0.0, 0.0], [0.0, 0.0, 2.0, 1.0, 0.0, 0.0], [0.0, 0.0, 2.0, 0.0, 0.0, 0.0], [0.0, 0.0, 0.0, 1.0, 0.0, 0.0], [0.0, 0.0, 0.0, 2.0, 0.0, 0.0], [1.0, 0.0, 0.0, 11.0, 0.0, 4.0], [1.0, 0.0, 0.0, 11.0, 0.0, 3.0], [0.0, 0.0, 0.0, 3.0, 0.0, 2.0], [0.0, 0.0, 0.0, 1.0, 0.0, 2.0], [0.0, 0.0, 0.0, 1.0, 0.0, 0.0], [0.0, 0.0, 0.0, 0.0, 0.0, 2.0], [0.0, 0.0, 0.0, 2.0, 0.0, 0.0], [1.0, 0.0, 0.0, 8.0, 0.0, 1.0], [0.0, 0.0, 0.0, 5.0, 0.0, 0.0], [1.0, 0.0, 0.0, 3.0, 0.0, 1.0], [0.0, 0.0, 0.0, 3.0, 0.0, 1.0], [0.0, 0.0, 0.0, 2.0, 0.0, 0.0], [0.0, 0.0, 0.0, 1.0, 0.0, 1.0], [0.0, 0.0, 0.0, 0.0, 0.0, 1.0], [0.0, 0.0, 0.0, 1.0, 0.0, 0.0], [1.0, 0.0, 0.0, 0.0, 0.0, 0.0], [0.0, 0.0, 0.0, 0.0, 0.0, 1.0], [0.0, 0.0, 0.0, 0.0, 0.0, 7.0], [0.0, 0.0, 0.0, 6.0, 0.0, 0.0], [0.0, 0.0, 3.0, 0.0, 0.0, 0.0], [3.0, 0.0, 19.0, 8.0, 0.0, 17.0], [0.0, 0.0, 18.0, 2.0, 0.0, 11.0], [0.0, 0.0, 6.0, 0.0, 0.0, 8.0], [0.0, 0.0, 0.0, 0.0, 0.0, 4.0], [0.0, 0.0, 6.0, 0.0, 0.0, 4.0], [0.0, 0.0, 4.0, 0.0, 0.0, 1.0], [0.0, 0.0, 3.0, 0.0, 0.0, 0.0], [0.0, 0.0, 1.0, 0.0, 0.0, 1.0], [0.0, 0.0, 0.0, 0.0, 0.0, 1.0], [0.0, 0.0, 1.0, 0.0, 0.0, 0.0], [0.0, 0.0, 2.0, 0.0, 0.0, 3.0], [0.0, 0.0, 2.0, 0.0, 0.0, 0.0], [0.0, 0.0, 0.0, 0.0, 0.0, 3.0], [0.0, 0.0, 12.0, 2.0, 0.0, 3.0], [0.0, 0.0, 3.0, 2.0, 0.0, 2.0], [0.0, 0.0, 0.0, 2.0, 0.0, 0.0], [0.0, 0.0, 3.0, 0.0, 0.0, 2.0], [0.0, 0.0, 2.0, 0.0, 0.0, 0.0], [0.0, 0.0, 1.0, 0.0, 0.0, 2.0], [0.0, 0.0, 0.0, 0.0, 0.0, 2.0], [0.0, 0.0, 1.0, 0.0, 0.0, 0.0], [0.0, 0.0, 9.0, 0.0, 0.0, 1.0], [0.0, 0.0, 2.0, 0.0, 0.0, 1.0], [0.0, 0.0, 2.0, 0.0, 0.0, 0.0], [0.0, 0.0, 0.0, 0.0, 0.0, 1.0], [0.0, 0.0, 7.0, 0.0, 0.0, 0.0], [3.0, 0.0, 1.0, 6.0, 0.0, 6.0], [3.0, 0.0, 1.0, 2.0, 0.0, 5.0], [3.0, 0.0, 0.0, 2.0, 0.0, 1.0], [3.0, 0.0, 0.0, 0.0, 0.0, 0.0], [0.0, 0.0, 0.0, 2.0, 0.0, 1.0], [0.0, 0.0, 0.0, 2.0, 0.0, 0.0], [0.0, 0.0, 0.0, 0.0, 0.0, 1.0], [0.0, 0.0, 1.0, 0.0, 0.0, 4.0], [0.0, 0.0, 0.0, 0.0, 0.0, 3.0], [0.0, 0.0, 1.0, 0.0, 0.0, 1.0], [0.0, 0.0, 1.0, 0.0, 0.0, 0.0], [0.0, 0.0, 0.0, 0.0, 0.0, 1.0], [0.0, 0.0, 0.0, 4.0, 0.0, 1.0], [0.0, 0.0, 0.0, 0.0, 0.0, 1.0], [0.0, 0.0, 0.0, 4.0, 0.0, 0.0], [63.0, 7.0, 31.0, 868.0, 2.0, 74.0], [56.0, 7.0, 23.0, 868.0, 2.0, 74.0], [26.0, 3.0, 3.0, 737.0, 2.0, 52.0], [19.0, 0.0, 1.0, 84.0, 1.0, 18.0], [6.0, 0.0, 1.0, 84.0, 1.0, 18.0], [6.0, 0.0, 1.0, 82.0, 1.0, 8.0], [0.0, 0.0, 1.0, 0.0, 0.0, 2.0], [0.0, 0.0, 1.0, 0.0, 0.0, 0.0], [0.0, 0.0, 0.0, 0.0, 0.0, 2.0], [6.0, 0.0, 0.0, 82.0, 1.0, 6.0], [2.0, 0.0, 0.0, 75.0, 0.0, 6.0], [0.0, 0.0, 0.0, 25.0, 0.0, 6.0], [0.0, 0.0, 0.0, 25.0, 0.0, 5.0], [0.0, 0.0, 0.0, 6.0, 0.0, 4.0], [0.0, 0.0, 0.0, 0.0, 0.0, 1.0], [0.0, 0.0, 0.0, 6.0, 0.0, 3.0], [0.0, 0.0, 0.0, 5.0, 0.0, 1.0], [0.0, 0.0, 0.0, 1.0, 0.0, 1.0], [0.0, 0.0, 0.0, 1.0, 0.0, 0.0], [0.0, 0.0, 0.0, 0.0, 0.0, 1.0], [0.0, 0.0, 0.0, 4.0, 0.0, 0.0], [0.0, 0.0, 0.0, 1.0, 0.0, 2.0], [0.0, 0.0, 0.0, 1.0, 0.0, 0.0], [0.0, 0.0, 0.0, 0.0, 0.0, 2.0], [0.0, 0.0, 0.0, 19.0, 0.0, 1.0], [0.0, 0.0, 0.0, 13.0, 0.0, 0.0], [0.0, 0.0, 0.0, 6.0, 0.0, 1.0], [0.0, 0.0, 0.0, 1.0, 0.0, 1.0], [0.0, 0.0, 0.0, 1.0, 0.0, 0.0], [0.0, 0.0, 0.0, 0.0, 0.0, 1.0], [0.0, 0.0, 0.0, 5.0, 0.0, 0.0], [0.0, 0.0, 0.0, 0.0, 0.0, 1.0], [2.0, 0.0, 0.0, 50.0, 0.0, 0.0], [2.0, 0.0, 0.0, 9.0, 0.0, 0.0], [1.0, 0.0, 0.0, 1.0, 0.0, 0.0], [0.0, 0.0, 0.0, 1.0, 0.0, 0.0], [1.0, 0.0, 0.0, 0.0, 0.0, 0.0], [1.0, 0.0, 0.0, 8.0, 0.0, 0.0], [0.0, 0.0, 0.0, 7.0, 0.0, 0.0], [1.0, 0.0, 0.0, 1.0, 0.0, 0.0], [0.0, 0.0, 0.0, 1.0, 0.0, 0.0], [1.0, 0.0, 0.0, 0.0, 0.0, 0.0], [0.0, 0.0, 0.0, 41.0, 0.0, 0.0], [4.0, 0.0, 0.0, 7.0, 1.0, 0.0], [0.0, 0.0, 0.0, 0.0, 1.0, 0.0], [4.0, 0.0, 0.0, 7.0, 0.0, 0.0], [4.0, 0.0, 0.0, 4.0, 0.0, 0.0], [3.0, 0.0, 0.0, 1.0, 0.0, 0.0], [0.0, 0.0, 0.0, 1.0, 0.0, 0.0], [3.0, 0.0, 0.0, 0.0, 0.0, 0.0], [1.0, 0.0, 0.0, 3.0, 0.0, 0.0], [0.0, 0.0, 0.0, 2.0, 0.0, 0.0], [1.0, 0.0, 0.0, 1.0, 0.0, 0.0], [0.0, 0.0, 0.0, 3.0, 0.0, 0.0], [0.0, 0.0, 0.0, 2.0, 0.0, 10.0], [0.0, 0.0, 0.0, 0.0, 0.0, 6.0], [0.0, 0.0, 0.0, 2.0, 0.0, 4.0], [0.0, 0.0, 0.0, 0.0, 0.0, 4.0], [0.0, 0.0, 0.0, 2.0, 0.0, 0.0], [13.0, 0.0, 0.0, 0.0, 0.0, 0.0], [7.0, 3.0, 2.0, 653.0, 1.0, 34.0], [7.0, 0.0, 0.0, 653.0, 1.0, 34.0], [7.0, 0.0, 0.0, 653.0, 0.0, 34.0], [7.0, 0.0, 0.0, 585.0, 0.0, 23.0], [5.0, 0.0, 0.0, 572.0, 0.0, 20.0], [0.0, 0.0, 0.0, 15.0, 0.0, 4.0], [0.0, 0.0, 0.0, 5.0, 0.0, 4.0], [0.0, 0.0, 0.0, 1.0, 0.0, 4.0], [0.0, 0.0, 0.0, 1.0, 0.0, 0.0], [0.0, 0.0, 0.0, 0.0, 0.0, 4.0], [0.0, 0.0, 0.0, 4.0, 0.0, 0.0], [0.0, 0.0, 0.0, 10.0, 0.0, 0.0], [5.0, 0.0, 0.0, 557.0, 0.0, 16.0], [5.0, 0.0, 0.0, 537.0, 0.0, 13.0], [1.0, 0.0, 0.0, 24.0, 0.0, 3.0], [1.0, 0.0, 0.0, 23.0, 0.0, 0.0], [1.0, 0.0, 0.0, 6.0, 0.0, 0.0], [0.0, 0.0, 0.0, 6.0, 0.0, 0.0], [1.0, 0.0, 0.0, 0.0, 0.0, 0.0], [0.0, 0.0, 0.0, 17.0, 0.0, 0.0], [0.0, 0.0, 0.0, 1.0, 0.0, 3.0], [0.0, 0.0, 0.0, 0.0, 0.0, 2.0], [0.0, 0.0, 0.0, 1.0, 0.0, 1.0], [0.0, 0.0, 0.0, 1.0, 0.0, 0.0], [0.0, 0.0, 0.0, 0.0, 0.0, 1.0], [4.0, 0.0, 0.0, 513.0, 0.0, 10.0], [4.0, 0.0, 0.0, 452.0, 0.0, 5.0], [3.0, 0.0, 0.0, 57.0, 0.0, 2.0], [0.0, 0.0, 0.0, 0.0, 0.0, 1.0], [3.0, 0.0, 0.0, 57.0, 0.0, 1.0], [0.0, 0.0, 0.0, 2.0, 0.0, 1.0], [0.0, 0.0, 0.0, 0.0, 0.0, 1.0], [0.0, 0.0, 0.0, 2.0, 0.0, 0.0], [3.0, 0.0, 0.0, 55.0, 0.0, 0.0], [0.0, 0.0, 0.0, 28.0, 0.0, 0.0], [3.0, 0.0, 0.0, 27.0, 0.0, 0.0], [3.0, 0.0, 0.0, 12.0, 0.0, 0.0], [0.0, 0.0, 0.0, 9.0, 0.0, 0.0], [3.0, 0.0, 0.0, 3.0, 0.0, 0.0], [3.0, 0.0, 0.0, 1.0, 0.0, 0.0], [0.0, 0.0, 0.0, 1.0, 0.0, 0.0], [3.0, 0.0, 0.0, 0.0, 0.0, 0.0], [0.0, 0.0, 0.0, 2.0, 0.0, 0.0], [0.0, 0.0, 0.0, 15.0, 0.0, 0.0], [1.0, 0.0, 0.0, 395.0, 0.0, 3.0], [1.0, 0.0, 0.0, 109.0, 0.0, 3.0], [1.0, 0.0, 0.0, 107.0, 0.0, 2.0], [0.0, 0.0, 0.0, 2.0, 0.0, 1.0], [0.0, 0.0, 0.0, 2.0, 0.0, 0.0], [0.0, 0.0, 0.0, 0.0, 0.0, 1.0], [1.0, 0.0, 0.0, 105.0, 0.0, 1.0], [0.0, 0.0, 0.0, 99.0, 0.0, 1.0], [0.0, 0.0, 0.0, 87.0, 0.0, 0.0], [0.0, 0.0, 0.0, 12.0, 0.0, 1.0], [0.0, 0.0, 0.0, 0.0, 0.0, 1.0], [0.0, 0.0, 0.0, 12.0, 0.0, 0.0], [1.0, 0.0, 0.0, 6.0, 0.0, 0.0], [1.0, 0.0, 0.0, 0.0, 0.0, 0.0], [0.0, 0.0, 0.0, 6.0, 0.0, 0.0], [0.0, 0.0, 0.0, 2.0, 0.0, 1.0], [0.0, 0.0, 0.0, 2.0, 0.0, 0.0], [0.0, 0.0, 0.0, 0.0, 0.0, 1.0], [0.0, 0.0, 0.0, 286.0, 0.0, 0.0], [0.0, 0.0, 0.0, 61.0, 0.0, 5.0], [0.0, 0.0, 0.0, 61.0, 0.0, 2.0], [0.0, 0.0, 0.0, 6.0, 0.0, 1.0], [0.0, 0.0, 0.0, 5.0, 0.0, 0.0], [0.0, 0.0, 0.0, 1.0, 0.0, 1.0], [0.0, 0.0, 0.0, 1.0, 0.0, 0.0], [0.0, 0.0, 0.0, 0.0, 0.0, 1.0], [0.0, 0.0, 0.0, 55.0, 0.0, 1.0], [0.0, 0.0, 0.0, 12.0, 0.0, 1.0], [0.0, 0.0, 0.0, 12.0, 0.0, 0.0], [0.0, 0.0, 0.0, 0.0, 0.0, 1.0], [0.0, 0.0, 0.0, 43.0, 0.0, 0.0], [0.0, 0.0, 0.0, 0.0, 0.0, 3.0], [0.0, 0.0, 0.0, 20.0, 0.0, 3.0], [0.0, 0.0, 0.0, 20.0, 0.0, 0.0], [0.0, 0.0, 0.0, 0.0, 0.0, 3.0], [2.0, 0.0, 0.0, 13.0, 0.0, 3.0], [1.0, 0.0, 0.0, 0.0, 0.0, 0.0], [1.0, 0.0, 0.0, 13.0, 0.0, 3.0], [0.0, 0.0, 0.0, 5.0, 0.0, 3.0], [0.0, 0.0, 0.0, 4.0, 0.0, 0.0], [0.0, 0.0, 0.0, 1.0, 0.0, 3.0], [0.0, 0.0, 0.0, 1.0, 0.0, 0.0], [0.0, 0.0, 0.0, 0.0, 0.0, 3.0], [1.0, 0.0, 0.0, 8.0, 0.0, 0.0], [0.0, 0.0, 0.0, 6.0, 0.0, 0.0], [1.0, 0.0, 0.0, 2.0, 0.0, 0.0], [1.0, 0.0, 0.0, 0.0, 0.0, 0.0], [0.0, 0.0, 0.0, 2.0, 0.0, 0.0], [0.0, 0.0, 0.0, 68.0, 0.0, 11.0], [0.0, 0.0, 0.0, 10.0, 0.0, 6.0], [0.0, 0.0, 0.0, 9.0, 0.0, 2.0], [0.0, 0.0, 0.0, 7.0, 0.0, 0.0], [0.0, 0.0, 0.0, 2.0, 0.0, 2.0], [0.0, 0.0, 0.0, 1.0, 0.0, 0.0], [0.0, 0.0, 0.0, 1.0, 0.0, 2.0], [0.0, 0.0, 0.0, 0.0, 0.0, 1.0], [0.0, 0.0, 0.0, 1.0, 0.0, 1.0], [0.0, 0.0, 0.0, 0.0, 0.0, 1.0], [0.0, 0.0, 0.0, 1.0, 0.0, 0.0], [0.0, 0.0, 0.0, 1.0, 0.0, 4.0], [0.0, 0.0, 0.0, 1.0, 0.0, 0.0], [0.0, 0.0, 0.0, 0.0, 0.0, 4.0], [0.0, 0.0, 0.0, 58.0, 0.0, 5.0], [0.0, 0.0, 0.0, 17.0, 0.0, 4.0], [0.0, 0.0, 0.0, 9.0, 0.0, 4.0], [0.0, 0.0, 0.0, 2.0, 0.0, 3.0], [0.0, 0.0, 0.0, 2.0, 0.0, 0.0], [0.0, 0.0, 0.0, 0.0, 0.0, 3.0], [0.0, 0.0, 0.0, 7.0, 0.0, 1.0], [0.0, 0.0, 0.0, 2.0, 0.0, 1.0], [0.0, 0.0, 0.0, 2.0, 0.0, 0.0], [0.0, 0.0, 0.0, 0.0, 0.0, 1.0], [0.0, 0.0, 0.0, 5.0, 0.0, 0.0], [0.0, 0.0, 0.0, 8.0, 0.0, 0.0], [0.0, 0.0, 0.0, 41.0, 0.0, 1.0], [0.0, 0.0, 0.0, 8.0, 0.0, 1.0], [0.0, 0.0, 0.0, 7.0, 0.0, 0.0], [0.0, 0.0, 0.0, 1.0, 0.0, 1.0], [0.0, 0.0, 0.0, 1.0, 0.0, 0.0], [0.0, 0.0, 0.0, 0.0, 0.0, 1.0], [0.0, 0.0, 0.0, 33.0, 0.0, 0.0], [0.0, 0.0, 0.0, 0.0, 1.0, 0.0], [0.0, 3.0, 2.0, 0.0, 0.0, 0.0], [0.0, 3.0, 0.0, 0.0, 0.0, 0.0], [0.0, 0.0, 2.0, 0.0, 0.0, 0.0], [30.0, 4.0, 20.0, 131.0, 0.0, 22.0], [5.0, 0.0, 2.0, 124.0, 0.0, 21.0], [0.0, 0.0, 2.0, 2.0, 0.0, 7.0], [0.0, 0.0, 2.0, 1.0, 0.0, 7.0], [0.0, 0.0, 0.0, 1.0, 0.0, 0.0], [0.0, 0.0, 2.0, 0.0, 0.0, 7.0], [0.0, 0.0, 1.0, 0.0, 0.0, 7.0], [0.0, 0.0, 1.0, 0.0, 0.0, 0.0], [0.0, 0.0, 0.0, 0.0, 0.0, 7.0], [0.0, 0.0, 1.0, 0.0, 0.0, 0.0], [0.0, 0.0, 0.0, 1.0, 0.0, 0.0], [5.0, 0.0, 0.0, 122.0, 0.0, 14.0], [5.0, 0.0, 0.0, 118.0, 0.0, 9.0], [5.0, 0.0, 0.0, 77.0, 0.0, 8.0], [1.0, 0.0, 0.0, 63.0, 0.0, 6.0], [0.0, 0.0, 0.0, 60.0, 0.0, 5.0], [0.0, 0.0, 0.0, 33.0, 0.0, 5.0], [0.0, 0.0, 0.0, 20.0, 0.0, 0.0], [0.0, 0.0, 0.0, 13.0, 0.0, 5.0], [0.0, 0.0, 0.0, 0.0, 0.0, 1.0], [0.0, 0.0, 0.0, 13.0, 0.0, 4.0], [0.0, 0.0, 0.0, 0.0, 0.0, 1.0], [0.0, 0.0, 0.0, 13.0, 0.0, 3.0], [0.0, 0.0, 0.0, 1.0, 0.0, 1.0], [0.0, 0.0, 0.0, 1.0, 0.0, 0.0], [0.0, 0.0, 0.0, 0.0, 0.0, 1.0], [0.0, 0.0, 0.0, 12.0, 0.0, 2.0], [0.0, 0.0, 0.0, 1.0, 0.0, 1.0], [0.0, 0.0, 0.0, 1.0, 0.0, 0.0], [0.0, 0.0, 0.0, 0.0, 0.0, 1.0], [0.0, 0.0, 0.0, 11.0, 0.0, 1.0], [0.0, 0.0, 0.0, 2.0, 0.0, 1.0], [0.0, 0.0, 0.0, 2.0, 0.0, 0.0], [0.0, 0.0, 0.0, 0.0, 0.0, 1.0], [0.0, 0.0, 0.0, 9.0, 0.0, 0.0], [0.0, 0.0, 0.0, 27.0, 0.0, 0.0], [1.0, 0.0, 0.0, 3.0, 0.0, 1.0], [0.0, 0.0, 0.0, 0.0, 0.0, 1.0], [1.0, 0.0, 0.0, 3.0, 0.0, 0.0], [1.0, 0.0, 0.0, 0.0, 0.0, 0.0], [0.0, 0.0, 0.0, 3.0, 0.0, 0.0], [4.0, 0.0, 0.0, 14.0, 0.0, 2.0], [3.0, 0.0, 0.0, 0.0, 0.0, 1.0], [0.0, 0.0, 0.0, 0.0, 0.0, 1.0], [3.0, 0.0, 0.0, 0.0, 0.0, 0.0], [1.0, 0.0, 0.0, 14.0, 0.0, 1.0], [0.0, 0.0, 0.0, 13.0, 0.0, 0.0], [1.0, 0.0, 0.0, 1.0, 0.0, 1.0], [0.0, 0.0, 0.0, 1.0, 0.0, 1.0], [0.0, 0.0, 0.0, 1.0, 0.0, 0.0], [0.0, 0.0, 0.0, 0.0, 0.0, 1.0], [1.0, 0.0, 0.0, 0.0, 0.0, 0.0], [0.0, 0.0, 0.0, 41.0, 0.0, 1.0], [0.0, 0.0, 0.0, 28.0, 0.0, 0.0], [0.0, 0.0, 0.0, 13.0, 0.0, 1.0], [0.0, 0.0, 0.0, 3.0, 0.0, 1.0], [0.0, 0.0, 0.0, 3.0, 0.0, 0.0], [0.0, 0.0, 0.0, 0.0, 0.0, 1.0], [0.0, 0.0, 0.0, 10.0, 0.0, 0.0], [0.0, 0.0, 0.0, 4.0, 0.0, 5.0], [0.0, 0.0, 0.0, 2.0, 0.0, 5.0], [0.0, 0.0, 0.0, 1.0, 0.0, 0.0], [0.0, 0.0, 0.0, 1.0, 0.0, 5.0], [0.0, 0.0, 0.0, 0.0, 0.0, 5.0], [0.0, 0.0, 0.0, 1.0, 0.0, 0.0], [0.0, 0.0, 0.0, 2.0, 0.0, 0.0], [25.0, 4.0, 18.0, 7.0, 0.0, 1.0], [0.0, 4.0, 12.0, 7.0, 0.0, 1.0], [0.0, 0.0, 1.0, 7.0, 0.0, 1.0], [0.0, 0.0, 0.0, 7.0, 0.0, 1.0], [0.0, 0.0, 0.0, 0.0, 0.0, 1.0], [0.0, 0.0, 0.0, 7.0, 0.0, 0.0], [0.0, 0.0, 1.0, 0.0, 0.0, 0.0], [0.0, 4.0, 11.0, 0.0, 0.0, 0.0], [0.0, 1.0, 10.0, 0.0, 0.0, 0.0], [0.0, 1.0, 2.0, 0.0, 0.0, 0.0], [0.0, 1.0, 0.0, 0.0, 0.0, 0.0], [0.0, 0.0, 2.0, 0.0, 0.0, 0.0], [0.0, 0.0, 8.0, 0.0, 0.0, 0.0], [0.0, 3.0, 1.0, 0.0, 0.0, 0.0], [0.0, 3.0, 0.0, 0.0, 0.0, 0.0], [0.0, 0.0, 1.0, 0.0, 0.0, 0.0], [25.0, 0.0, 6.0, 0.0, 0.0, 0.0], [1.0, 0.0, 2.0, 0.0, 0.0, 0.0], [0.0, 0.0, 2.0, 0.0, 0.0, 0.0], [1.0, 0.0, 0.0, 0.0, 0.0, 0.0], [24.0, 0.0, 4.0, 0.0, 0.0, 0.0], [24.0, 0.0, 3.0, 0.0, 0.0, 0.0], [4.0, 0.0, 2.0, 0.0, 0.0, 0.0], [0.0, 0.0, 2.0, 0.0, 0.0, 0.0], [4.0, 0.0, 0.0, 0.0, 0.0, 0.0], [20.0, 0.0, 1.0, 0.0, 0.0, 0.0], [13.0, 0.0, 0.0, 0.0, 0.0, 0.0], [7.0, 0.0, 1.0, 0.0, 0.0, 0.0], [1.0, 0.0, 1.0, 0.0, 0.0, 0.0], [1.0, 0.0, 0.0, 0.0, 0.0, 0.0], [0.0, 0.0, 1.0, 0.0, 0.0, 0.0], [6.0, 0.0, 0.0, 0.0, 0.0, 0.0], [0.0, 0.0, 1.0, 0.0, 0.0, 0.0], [7.0, 0.0, 8.0, 0.0, 0.0, 0.0], [5.0, 0.0, 0.0, 0.0, 0.0, 0.0], [2.0, 0.0, 8.0, 0.0, 0.0, 0.0], [0.0, 0.0, 7.0, 0.0, 0.0, 0.0], [2.0, 0.0, 1.0, 0.0, 0.0, 0.0], [0.0, 0.0, 1.0, 0.0, 0.0, 0.0], [2.0, 0.0, 0.0, 0.0, 0.0, 0.0], [452.0, 195.0, 1637.0, 70.0, 0.0, 81.0], [302.0, 85.0, 1511.0, 0.0, 0.0, 0.0], [288.0, 85.0, 1016.0, 0.0, 0.0, 0.0], [127.0, 34.0, 827.0, 0.0, 0.0, 0.0], [34.0, 13.0, 29.0, 0.0, 0.0, 0.0], [34.0, 5.0, 9.0, 0.0, 0.0, 0.0], [13.0, 5.0, 8.0, 0.0, 0.0, 0.0], [0.0, 4.0, 4.0, 0.0, 0.0, 0.0], [0.0, 4.0, 1.0, 0.0, 0.0, 0.0], [0.0, 0.0, 1.0, 0.0, 0.0, 0.0], [0.0, 4.0, 0.0, 0.0, 0.0, 0.0], [0.0, 0.0, 3.0, 0.0, 0.0, 0.0], [13.0, 1.0, 4.0, 0.0, 0.0, 0.0], [10.0, 0.0, 0.0, 0.0, 0.0, 0.0], [3.0, 1.0, 4.0, 0.0, 0.0, 0.0], [0.0, 1.0, 3.0, 0.0, 0.0, 0.0], [0.0, 1.0, 0.0, 0.0, 0.0, 0.0], [0.0, 0.0, 3.0, 0.0, 0.0, 0.0], [3.0, 0.0, 1.0, 0.0, 0.0, 0.0], [3.0, 0.0, 0.0, 0.0, 0.0, 0.0], [0.0, 0.0, 1.0, 0.0, 0.0, 0.0], [21.0, 0.0, 1.0, 0.0, 0.0, 0.0], [2.0, 0.0, 1.0, 0.0, 0.0, 0.0], [2.0, 0.0, 0.0, 0.0, 0.0, 0.0], [0.0, 0.0, 1.0, 0.0, 0.0, 0.0], [19.0, 0.0, 0.0, 0.0, 0.0, 0.0], [0.0, 8.0, 20.0, 0.0, 0.0, 0.0], [0.0, 7.0, 0.0, 0.0, 0.0, 0.0], [0.0, 1.0, 20.0, 0.0, 0.0, 0.0], [0.0, 1.0, 0.0, 0.0, 0.0, 0.0], [0.0, 0.0, 20.0, 0.0, 0.0, 0.0], [93.0, 21.0, 798.0, 0.0, 0.0, 0.0], [0.0, 7.0, 2.0, 0.0, 0.0, 0.0], [0.0, 6.0, 0.0, 0.0, 0.0, 0.0], [0.0, 1.0, 2.0, 0.0, 0.0, 0.0], [0.0, 1.0, 0.0, 0.0, 0.0, 0.0], [0.0, 0.0, 2.0, 0.0, 0.0, 0.0], [93.0, 14.0, 796.0, 0.0, 0.0, 0.0], [89.0, 13.0, 505.0, 0.0, 0.0, 0.0], [64.0, 9.0, 449.0, 0.0, 0.0, 0.0], [50.0, 9.0, 425.0, 0.0, 0.0, 0.0], [4.0, 0.0, 1.0, 0.0, 0.0, 0.0], [4.0, 0.0, 0.0, 0.0, 0.0, 0.0], [0.0, 0.0, 1.0, 0.0, 0.0, 0.0], [46.0, 9.0, 424.0, 0.0, 0.0, 0.0], [27.0, 7.0, 344.0, 0.0, 0.0, 0.0], [27.0, 6.0, 344.0, 0.0, 0.0, 0.0], [0.0, 1.0, 0.0, 0.0, 0.0, 0.0], [27.0, 5.0, 344.0, 0.0, 0.0, 0.0], [0.0, 3.0, 6.0, 0.0, 0.0, 0.0], [0.0, 3.0, 1.0, 0.0, 0.0, 0.0], [0.0, 3.0, 0.0, 0.0, 0.0, 0.0], [0.0, 0.0, 1.0, 0.0, 0.0, 0.0], [0.0, 0.0, 5.0, 0.0, 0.0, 0.0], [27.0, 2.0, 338.0, 0.0, 0.0, 0.0], [1.0, 1.0, 114.0, 0.0, 0.0, 0.0], [0.0, 1.0, 114.0, 0.0, 0.0, 0.0], [0.0, 1.0, 7.0, 0.0, 0.0, 0.0], [0.0, 0.0, 7.0, 0.0, 0.0, 0.0], [0.0, 1.0, 0.0, 0.0, 0.0, 0.0], [0.0, 0.0, 107.0, 0.0, 0.0, 0.0], [1.0, 0.0, 0.0, 0.0, 0.0, 0.0], [26.0, 1.0, 224.0, 0.0, 0.0, 0.0], [21.0, 1.0, 217.0, 0.0, 0.0, 0.0], [4.0, 0.0, 5.0, 0.0, 0.0, 0.0], [0.0, 0.0, 4.0, 0.0, 0.0, 0.0], [4.0, 0.0, 1.0, 0.0, 0.0, 0.0], [0.0, 0.0, 1.0, 0.0, 0.0, 0.0], [4.0, 0.0, 0.0, 0.0, 0.0, 0.0], [17.0, 1.0, 212.0, 0.0, 0.0, 0.0], [16.0, 1.0, 212.0, 0.0, 0.0, 0.0], [14.0, 1.0, 209.0, 0.0, 0.0, 0.0], [10.0, 0.0, 67.0, 0.0, 0.0, 0.0], [5.0, 0.0, 56.0, 0.0, 0.0, 0.0], [2.0, 0.0, 3.0, 0.0, 0.0, 0.0], [2.0, 0.0, 0.0, 0.0, 0.0, 0.0], [0.0, 0.0, 3.0, 0.0, 0.0, 0.0], [3.0, 0.0, 53.0, 0.0, 0.0, 0.0], [0.0, 0.0, 38.0, 0.0, 0.0, 0.0], [3.0, 0.0, 15.0, 0.0, 0.0, 0.0], [0.0, 0.0, 14.0, 0.0, 0.0, 0.0], [3.0, 0.0, 1.0, 0.0, 0.0, 0.0], [3.0, 0.0, 0.0, 0.0, 0.0, 0.0], [0.0, 0.0, 1.0, 0.0, 0.0, 0.0], [5.0, 0.0, 11.0, 0.0, 0.0, 0.0], [4.0, 0.0, 4.0, 0.0, 0.0, 0.0], [0.0, 0.0, 3.0, 0.0, 0.0, 0.0], [4.0, 0.0, 1.0, 0.0, 0.0, 0.0], [0.0, 0.0, 1.0, 0.0, 0.0, 0.0], [4.0, 0.0, 0.0, 0.0, 0.0, 0.0], [1.0, 0.0, 7.0, 0.0, 0.0, 0.0], [0.0, 0.0, 5.0, 0.0, 0.0, 0.0], [1.0, 0.0, 2.0, 0.0, 0.0, 0.0], [0.0, 0.0, 2.0, 0.0, 0.0, 0.0], [1.0, 0.0, 0.0, 0.0, 0.0, 0.0], [4.0, 1.0, 142.0, 0.0, 0.0, 0.0], [0.0, 1.0, 0.0, 0.0, 0.0, 0.0], [4.0, 0.0, 142.0, 0.0, 0.0, 0.0], [2.0, 0.0, 5.0, 0.0, 0.0, 0.0], [2.0, 0.0, 0.0, 0.0, 0.0, 0.0], [0.0, 0.0, 5.0, 0.0, 0.0, 0.0], [2.0, 0.0, 137.0, 0.0, 0.0, 0.0], [1.0, 0.0, 134.0, 0.0, 0.0, 0.0], [0.0, 0.0, 121.0, 0.0, 0.0, 0.0], [1.0, 0.0, 13.0, 0.0, 0.0, 0.0], [1.0, 0.0, 1.0, 0.0, 0.0, 0.0], [0.0, 0.0, 1.0, 0.0, 0.0, 0.0], [1.0, 0.0, 0.0, 0.0, 0.0, 0.0], [0.0, 0.0, 12.0, 0.0, 0.0, 0.0], [1.0, 0.0, 3.0, 0.0, 0.0, 0.0], [1.0, 0.0, 0.0, 0.0, 0.0, 0.0], [0.0, 0.0, 3.0, 0.0, 0.0, 0.0], [2.0, 0.0, 3.0, 0.0, 0.0, 0.0], [0.0, 0.0, 3.0, 0.0, 0.0, 0.0], [2.0, 0.0, 0.0, 0.0, 0.0, 0.0], [1.0, 0.0, 0.0, 0.0, 0.0, 0.0], [5.0, 0.0, 7.0, 0.0, 0.0, 0.0], [4.0, 0.0, 1.0, 0.0, 0.0, 0.0], [0.0, 0.0, 1.0, 0.0, 0.0, 0.0], [4.0, 0.0, 0.0, 0.0, 0.0, 0.0], [1.0, 0.0, 6.0, 0.0, 0.0, 0.0], [1.0, 0.0, 1.0, 0.0, 0.0, 0.0], [0.0, 0.0, 1.0, 0.0, 0.0, 0.0], [1.0, 0.0, 0.0, 0.0, 0.0, 0.0], [0.0, 0.0, 5.0, 0.0, 0.0, 0.0], [0.0, 1.0, 0.0, 0.0, 0.0, 0.0], [19.0, 2.0, 80.0, 0.0, 0.0, 0.0], [14.0, 2.0, 80.0, 0.0, 0.0, 0.0], [0.0, 0.0, 27.0, 0.0, 0.0, 0.0], [14.0, 2.0, 53.0, 0.0, 0.0, 0.0], [2.0, 0.0, 0.0, 0.0, 0.0, 0.0], [12.0, 2.0, 53.0, 0.0, 0.0, 0.0], [0.0, 2.0, 2.0, 0.0, 0.0, 0.0], [0.0, 2.0, 1.0, 0.0, 0.0, 0.0], [0.0, 0.0, 1.0, 0.0, 0.0, 0.0], [0.0, 2.0, 0.0, 0.0, 0.0, 0.0], [0.0, 0.0, 1.0, 0.0, 0.0, 0.0], [12.0, 0.0, 51.0, 0.0, 0.0, 0.0], [2.0, 0.0, 1.0, 0.0, 0.0, 0.0], [2.0, 0.0, 0.0, 0.0, 0.0, 0.0], [0.0, 0.0, 1.0, 0.0, 0.0, 0.0], [10.0, 0.0, 50.0, 0.0, 0.0, 0.0], [2.0, 0.0, 33.0, 0.0, 0.0, 0.0], [1.0, 0.0, 32.0, 0.0, 0.0, 0.0], [1.0, 0.0, 2.0, 0.0, 0.0, 0.0], [1.0, 0.0, 0.0, 0.0, 0.0, 0.0], [0.0, 0.0, 2.0, 0.0, 0.0, 0.0], [0.0, 0.0, 30.0, 0.0, 0.0, 0.0], [1.0, 0.0, 1.0, 0.0, 0.0, 0.0], [1.0, 0.0, 0.0, 0.0, 0.0, 0.0], [0.0, 0.0, 1.0, 0.0, 0.0, 0.0], [8.0, 0.0, 17.0, 0.0, 0.0, 0.0], [2.0, 0.0, 0.0, 0.0, 0.0, 0.0], [6.0, 0.0, 17.0, 0.0, 0.0, 0.0], [4.0, 0.0, 17.0, 0.0, 0.0, 0.0], [4.0, 0.0, 6.0, 0.0, 0.0, 0.0], [0.0, 0.0, 4.0, 0.0, 0.0, 0.0], [4.0, 0.0, 2.0, 0.0, 0.0, 0.0], [3.0, 0.0, 0.0, 0.0, 0.0, 0.0], [1.0, 0.0, 2.0, 0.0, 0.0, 0.0], [1.0, 0.0, 0.0, 0.0, 0.0, 0.0], [0.0, 0.0, 2.0, 0.0, 0.0, 0.0], [0.0, 0.0, 11.0, 0.0, 0.0, 0.0], [2.0, 0.0, 0.0, 0.0, 0.0, 0.0], [5.0, 0.0, 0.0, 0.0, 0.0, 0.0], [14.0, 0.0, 24.0, 0.0, 0.0, 0.0], [5.0, 0.0, 18.0, 0.0, 0.0, 0.0], [2.0, 0.0, 17.0, 0.0, 0.0, 0.0], [2.0, 0.0, 0.0, 0.0, 0.0, 0.0], [0.0, 0.0, 17.0, 0.0, 0.0, 0.0], [3.0, 0.0, 1.0, 0.0, 0.0, 0.0], [0.0, 0.0, 1.0, 0.0, 0.0, 0.0], [3.0, 0.0, 0.0, 0.0, 0.0, 0.0], [9.0, 0.0, 6.0, 0.0, 0.0, 0.0], [5.0, 0.0, 6.0, 0.0, 0.0, 0.0], [5.0, 0.0, 1.0, 0.0, 0.0, 0.0], [2.0, 0.0, 1.0, 0.0, 0.0, 0.0], [1.0, 0.0, 0.0, 0.0, 0.0, 0.0], [1.0, 0.0, 1.0, 0.0, 0.0, 0.0], [0.0, 0.0, 1.0, 0.0, 0.0, 0.0], [1.0, 0.0, 0.0, 0.0, 0.0, 0.0], [3.0, 0.0, 0.0, 0.0, 0.0, 0.0], [0.0, 0.0, 5.0, 0.0, 0.0, 0.0], [4.0, 0.0, 0.0, 0.0, 0.0, 0.0], [25.0, 4.0, 56.0, 0.0, 0.0, 0.0], [16.0, 1.0, 54.0, 0.0, 0.0, 0.0], [0.0, 1.0, 19.0, 0.0, 0.0, 0.0], [0.0, 1.0, 0.0, 0.0, 0.0, 0.0], [0.0, 0.0, 19.0, 0.0, 0.0, 0.0], [16.0, 0.0, 35.0, 0.0, 0.0, 0.0], [13.0, 0.0, 16.0, 0.0, 0.0, 0.0], [11.0, 0.0, 16.0, 0.0, 0.0, 0.0], [0.0, 0.0, 4.0, 0.0, 0.0, 0.0], [11.0, 0.0, 12.0, 0.0, 0.0, 0.0], [7.0, 0.0, 3.0, 0.0, 0.0, 0.0], [7.0, 0.0, 2.0, 0.0, 0.0, 0.0], [3.0, 0.0, 2.0, 0.0, 0.0, 0.0], [2.0, 0.0, 0.0, 0.0, 0.0, 0.0], [1.0, 0.0, 2.0, 0.0, 0.0, 0.0], [1.0, 0.0, 1.0, 0.0, 0.0, 0.0], [0.0, 0.0, 1.0, 0.0, 0.0, 0.0], [1.0, 0.0, 0.0, 0.0, 0.0, 0.0], [0.0, 0.0, 1.0, 0.0, 0.0, 0.0], [4.0, 0.0, 0.0, 0.0, 0.0, 0.0], [0.0, 0.0, 1.0, 0.0, 0.0, 0.0], [4.0, 0.0, 9.0, 0.0, 0.0, 0.0], [4.0, 0.0, 5.0, 0.0, 0.0, 0.0], [0.0, 0.0, 3.0, 0.0, 0.0, 0.0], [4.0, 0.0, 2.0, 0.0, 0.0, 0.0], [0.0, 0.0, 1.0, 0.0, 0.0, 0.0], [4.0, 0.0, 1.0, 0.0, 0.0, 0.0], [3.0, 0.0, 0.0, 0.0, 0.0, 0.0], [1.0, 0.0, 1.0, 0.0, 0.0, 0.0], [1.0, 0.0, 0.0, 0.0, 0.0, 0.0], [0.0, 0.0, 1.0, 0.0, 0.0, 0.0], [0.0, 0.0, 4.0, 0.0, 0.0, 0.0], [2.0, 0.0, 0.0, 0.0, 0.0, 0.0], [3.0, 0.0, 19.0, 0.0, 0.0, 0.0], [2.0, 0.0, 19.0, 0.0, 0.0, 0.0], [1.0, 0.0, 19.0, 0.0, 0.0, 0.0], [0.0, 0.0, 16.0, 0.0, 0.0, 0.0], [1.0, 0.0, 3.0, 0.0, 0.0, 0.0], [1.0, 0.0, 0.0, 0.0, 0.0, 0.0], [0.0, 0.0, 3.0, 0.0, 0.0, 0.0], [1.0, 0.0, 0.0, 0.0, 0.0, 0.0], [1.0, 0.0, 0.0, 0.0, 0.0, 0.0], [9.0, 3.0, 2.0, 0.0, 0.0, 0.0], [0.0, 3.0, 0.0, 0.0, 0.0, 0.0], [9.0, 0.0, 2.0, 0.0, 0.0, 0.0], [8.0, 0.0, 0.0, 0.0, 0.0, 0.0], [1.0, 0.0, 2.0, 0.0, 0.0, 0.0], [0.0, 0.0, 2.0, 0.0, 0.0, 0.0], [1.0, 0.0, 0.0, 0.0, 0.0, 0.0], [4.0, 1.0, 291.0, 0.0, 0.0, 0.0], [2.0, 1.0, 290.0, 0.0, 0.0, 0.0], [1.0, 1.0, 288.0, 0.0, 0.0, 0.0], [1.0, 0.0, 270.0, 0.0, 0.0, 0.0], [1.0, 0.0, 77.0, 0.0, 0.0, 0.0], [0.0, 0.0, 61.0, 0.0, 0.0, 0.0], [1.0, 0.0, 16.0, 0.0, 0.0, 0.0], [1.0, 0.0, 4.0, 0.0, 0.0, 0.0], [0.0, 0.0, 4.0, 0.0, 0.0, 0.0], [1.0, 0.0, 0.0, 0.0, 0.0, 0.0], [0.0, 0.0, 12.0, 0.0, 0.0, 0.0], [0.0, 0.0, 193.0, 0.0, 0.0, 0.0], [0.0, 1.0, 18.0, 0.0, 0.0, 0.0], [0.0, 1.0, 0.0, 0.0, 0.0, 0.0], [0.0, 0.0, 18.0, 0.0, 0.0, 0.0], [1.0, 0.0, 2.0, 0.0, 0.0, 0.0], [0.0, 0.0, 2.0, 0.0, 0.0, 0.0], [1.0, 0.0, 0.0, 0.0, 0.0, 0.0], [2.0, 0.0, 1.0, 0.0, 0.0, 0.0], [0.0, 0.0, 1.0, 0.0, 0.0, 0.0], [2.0, 0.0, 0.0, 0.0, 0.0, 0.0], [161.0, 51.0, 189.0, 0.0, 0.0, 0.0], [158.0, 14.0, 187.0, 0.0, 0.0, 0.0], [94.0, 12.0, 171.0, 0.0, 0.0, 0.0], [29.0, 2.0, 16.0, 0.0, 0.0, 0.0], [11.0, 2.0, 14.0, 0.0, 0.0, 0.0], [0.0, 2.0, 0.0, 0.0, 0.0, 0.0], [11.0, 0.0, 14.0, 0.0, 0.0, 0.0], [10.0, 0.0, 7.0, 0.0, 0.0, 0.0], [8.0, 0.0, 1.0, 0.0, 0.0, 0.0], [1.0, 0.0, 1.0, 0.0, 0.0, 0.0], [1.0, 0.0, 0.0, 0.0, 0.0, 0.0], [0.0, 0.0, 1.0, 0.0, 0.0, 0.0], [7.0, 0.0, 0.0, 0.0, 0.0, 0.0], [2.0, 0.0, 6.0, 0.0, 0.0, 0.0], [2.0, 0.0, 0.0, 0.0, 0.0, 0.0], [0.0, 0.0, 6.0, 0.0, 0.0, 0.0], [1.0, 0.0, 7.0, 0.0, 0.0, 0.0], [0.0, 0.0, 6.0, 0.0, 0.0, 0.0], [1.0, 0.0, 1.0, 0.0, 0.0, 0.0], [0.0, 0.0, 1.0, 0.0, 0.0, 0.0], [1.0, 0.0, 0.0, 0.0, 0.0, 0.0], [18.0, 0.0, 2.0, 0.0, 0.0, 0.0], [0.0, 0.0, 2.0, 0.0, 0.0, 0.0], [18.0, 0.0, 0.0, 0.0, 0.0, 0.0], [65.0, 10.0, 155.0, 0.0, 0.0, 0.0], [9.0, 0.0, 1.0, 0.0, 0.0, 0.0], [1.0, 0.0, 1.0, 0.0, 0.0, 0.0], [0.0, 0.0, 1.0, 0.0, 0.0, 0.0], [1.0, 0.0, 0.0, 0.0, 0.0, 0.0], [8.0, 0.0, 0.0, 0.0, 0.0, 0.0], [56.0, 10.0, 154.0, 0.0, 0.0, 0.0], [0.0, 2.0, 37.0, 0.0, 0.0, 0.0], [0.0, 1.0, 37.0, 0.0, 0.0, 0.0], [0.0, 1.0, 5.0, 0.0, 0.0, 0.0], [0.0, 0.0, 5.0, 0.0, 0.0, 0.0], [0.0, 1.0, 0.0, 0.0, 0.0, 0.0], [0.0, 0.0, 32.0, 0.0, 0.0, 0.0], [0.0, 1.0, 0.0, 0.0, 0.0, 0.0], [56.0, 8.0, 117.0, 0.0, 0.0, 0.0], [37.0, 6.0, 109.0, 0.0, 0.0, 0.0], [37.0, 3.0, 108.0, 0.0, 0.0, 0.0], [17.0, 3.0, 73.0, 0.0, 0.0, 0.0], [14.0, 3.0, 31.0, 0.0, 0.0, 0.0], [9.0, 1.0, 10.0, 0.0, 0.0, 0.0], [5.0, 0.0, 10.0, 0.0, 0.0, 0.0], [4.0, 0.0, 1.0, 0.0, 0.0, 0.0], [3.0, 0.0, 0.0, 0.0, 0.0, 0.0], [1.0, 0.0, 1.0, 0.0, 0.0, 0.0], [1.0, 0.0, 0.0, 0.0, 0.0, 0.0], [0.0, 0.0, 1.0, 0.0, 0.0, 0.0], [1.0, 0.0, 9.0, 0.0, 0.0, 0.0], [0.0, 0.0, 7.0, 0.0, 0.0, 0.0], [1.0, 0.0, 2.0, 0.0, 0.0, 0.0], [1.0, 0.0, 0.0, 0.0, 0.0, 0.0], [0.0, 0.0, 2.0, 0.0, 0.0, 0.0], [4.0, 1.0, 0.0, 0.0, 0.0, 0.0], [4.0, 0.0, 0.0, 0.0, 0.0, 0.0], [0.0, 1.0, 0.0, 0.0, 0.0, 0.0], [5.0, 2.0, 21.0, 0.0, 0.0, 0.0], [2.0, 0.0, 1.0, 0.0, 0.0, 0.0], [2.0, 0.0, 0.0, 0.0, 0.0, 0.0], [0.0, 0.0, 1.0, 0.0, 0.0, 0.0], [3.0, 2.0, 20.0, 0.0, 0.0, 0.0], [0.0, 0.0, 10.0, 0.0, 0.0, 0.0], [3.0, 2.0, 10.0, 0.0, 0.0, 0.0], [0.0, 0.0, 5.0, 0.0, 0.0, 0.0], [3.0, 2.0, 5.0, 0.0, 0.0, 0.0], [0.0, 0.0, 3.0, 0.0, 0.0, 0.0], [3.0, 2.0, 2.0, 0.0, 0.0, 0.0], [3.0, 0.0, 1.0, 0.0, 0.0, 0.0], [3.0, 0.0, 0.0, 0.0, 0.0, 0.0], [0.0, 0.0, 1.0, 0.0, 0.0, 0.0], [0.0, 2.0, 1.0, 0.0, 0.0, 0.0], [0.0, 2.0, 0.0, 0.0, 0.0, 0.0], [0.0, 0.0, 1.0, 0.0, 0.0, 0.0], [3.0, 0.0, 42.0, 0.0, 0.0, 0.0], [1.0, 0.0, 1.0, 0.0, 0.0, 0.0], [0.0, 0.0, 1.0, 0.0, 0.0, 0.0], [1.0, 0.0, 0.0, 0.0, 0.0, 0.0], [2.0, 0.0, 41.0, 0.0, 0.0, 0.0], [2.0, 0.0, 19.0, 0.0, 0.0, 0.0], [0.0, 0.0, 15.0, 0.0, 0.0, 0.0], [2.0, 0.0, 4.0, 0.0, 0.0, 0.0], [0.0, 0.0, 3.0, 0.0, 0.0, 0.0], [2.0, 0.0, 1.0, 0.0, 0.0, 0.0], [1.0, 0.0, 0.0, 0.0, 0.0, 0.0], [1.0, 0.0, 1.0, 0.0, 0.0, 0.0], [1.0, 0.0, 0.0, 0.0, 0.0, 0.0], [0.0, 0.0, 1.0, 0.0, 0.0, 0.0], [0.0, 0.0, 22.0, 0.0, 0.0, 0.0], [20.0, 0.0, 35.0, 0.0, 0.0, 0.0], [18.0, 0.0, 35.0, 0.0, 0.0, 0.0], [5.0, 0.0, 18.0, 0.0, 0.0, 0.0], [1.0, 0.0, 13.0, 0.0, 0.0, 0.0], [0.0, 0.0, 11.0, 0.0, 0.0, 0.0], [1.0, 0.0, 2.0, 0.0, 0.0, 0.0], [1.0, 0.0, 1.0, 0.0, 0.0, 0.0], [0.0, 0.0, 1.0, 0.0, 0.0, 0.0], [1.0, 0.0, 0.0, 0.0, 0.0, 0.0], [0.0, 0.0, 1.0, 0.0, 0.0, 0.0], [4.0, 0.0, 5.0, 0.0, 0.0, 0.0], [2.0, 0.0, 5.0, 0.0, 0.0, 0.0], [2.0, 0.0, 3.0, 0.0, 0.0, 0.0], [2.0, 0.0, 1.0, 0.0, 0.0, 0.0], [1.0, 0.0, 0.0, 0.0, 0.0, 0.0], [1.0, 0.0, 1.0, 0.0, 0.0, 0.0], [1.0, 0.0, 0.0, 0.0, 0.0, 0.0], [0.0, 0.0, 1.0, 0.0, 0.0, 0.0], [0.0, 0.0, 2.0, 0.0, 0.0, 0.0], [0.0, 0.0, 2.0, 0.0, 0.0, 0.0], [2.0, 0.0, 0.0, 0.0, 0.0, 0.0], [13.0, 0.0, 17.0, 0.0, 0.0, 0.0], [9.0, 0.0, 4.0, 0.0, 0.0, 0.0], [9.0, 0.0, 2.0, 0.0, 0.0, 0.0], [0.0, 0.0, 1.0, 0.0, 0.0, 0.0], [9.0, 0.0, 1.0, 0.0, 0.0, 0.0], [2.0, 0.0, 1.0, 0.0, 0.0, 0.0], [0.0, 0.0, 1.0, 0.0, 0.0, 0.0], [2.0, 0.0, 0.0, 0.0, 0.0, 0.0], [7.0, 0.0, 0.0, 0.0, 0.0, 0.0], [0.0, 0.0, 2.0, 0.0, 0.0, 0.0], [4.0, 0.0, 13.0, 0.0, 0.0, 0.0], [2.0, 0.0, 1.0, 0.0, 0.0, 0.0], [1.0, 0.0, 0.0, 0.0, 0.0, 0.0], [1.0, 0.0, 1.0, 0.0, 0.0, 0.0], [1.0, 0.0, 0.0, 0.0, 0.0, 0.0], [0.0, 0.0, 1.0, 0.0, 0.0, 0.0], [2.0, 0.0, 12.0, 0.0, 0.0, 0.0], [0.0, 0.0, 8.0, 0.0, 0.0, 0.0], [2.0, 0.0, 4.0, 0.0, 0.0, 0.0], [0.0, 0.0, 3.0, 0.0, 0.0, 0.0], [2.0, 0.0, 1.0, 0.0, 0.0, 0.0], [2.0, 0.0, 0.0, 0.0, 0.0, 0.0], [0.0, 0.0, 1.0, 0.0, 0.0, 0.0], [2.0, 0.0, 0.0, 0.0, 0.0, 0.0], [0.0, 3.0, 1.0, 0.0, 0.0, 0.0], [0.0, 3.0, 0.0, 0.0, 0.0, 0.0], [0.0, 0.0, 1.0, 0.0, 0.0, 0.0], [19.0, 2.0, 8.0, 0.0, 0.0, 0.0], [12.0, 0.0, 0.0, 0.0, 0.0, 0.0], [7.0, 2.0, 8.0, 0.0, 0.0, 0.0], [3.0, 0.0, 0.0, 0.0, 0.0, 0.0], [4.0, 2.0, 8.0, 0.0, 0.0, 0.0], [0.0, 2.0, 0.0, 0.0, 0.0, 0.0], [4.0, 0.0, 8.0, 0.0, 0.0, 0.0], [0.0, 0.0, 6.0, 0.0, 0.0, 0.0], [4.0, 0.0, 2.0, 0.0, 0.0, 0.0], [3.0, 0.0, 0.0, 0.0, 0.0, 0.0], [1.0, 0.0, 2.0, 0.0, 0.0, 0.0], [0.0, 0.0, 2.0, 0.0, 0.0, 0.0], [1.0, 0.0, 0.0, 0.0, 0.0, 0.0], [64.0, 2.0, 16.0, 0.0, 0.0, 0.0], [64.0, 2.0, 10.0, 0.0, 0.0, 0.0], [63.0, 2.0, 5.0, 0.0, 0.0, 0.0], [8.0, 2.0, 5.0, 0.0, 0.0, 0.0], [2.0, 1.0, 5.0, 0.0, 0.0, 0.0], [0.0, 1.0, 0.0, 0.0, 0.0, 0.0], [2.0, 0.0, 5.0, 0.0, 0.0, 0.0], [2.0, 0.0, 1.0, 0.0, 0.0, 0.0], [0.0, 0.0, 1.0, 0.0, 0.0, 0.0], [2.0, 0.0, 0.0, 0.0, 0.0, 0.0], [0.0, 0.0, 4.0, 0.0, 0.0, 0.0], [6.0, 1.0, 0.0, 0.0, 0.0, 0.0], [6.0, 0.0, 0.0, 0.0, 0.0, 0.0], [0.0, 1.0, 0.0, 0.0, 0.0, 0.0], [55.0, 0.0, 0.0, 0.0, 0.0, 0.0], [1.0, 0.0, 5.0, 0.0, 0.0, 0.0], [1.0, 0.0, 0.0, 0.0, 0.0, 0.0], [0.0, 0.0, 5.0, 0.0, 0.0, 0.0], [0.0, 0.0, 6.0, 0.0, 0.0, 0.0], [3.0, 37.0, 2.0, 0.0, 0.0, 0.0], [0.0, 36.0, 0.0, 0.0, 0.0, 0.0], [3.0, 1.0, 2.0, 0.0, 0.0, 0.0], [3.0, 1.0, 0.0, 0.0, 0.0, 0.0], [0.0, 1.0, 0.0, 0.0, 0.0, 0.0], [3.0, 0.0, 0.0, 0.0, 0.0, 0.0], [0.0, 0.0, 2.0, 0.0, 0.0, 0.0], [14.0, 0.0, 495.0, 0.0, 0.0, 0.0], [1.0, 0.0, 0.0, 0.0, 0.0, 0.0], [13.0, 0.0, 495.0, 0.0, 0.0, 0.0], [9.0, 0.0, 71.0, 0.0, 0.0, 0.0], [2.0, 0.0, 65.0, 0.0, 0.0, 0.0], [2.0, 0.0, 7.0, 0.0, 0.0, 0.0], [0.0, 0.0, 4.0, 0.0, 0.0, 0.0], [2.0, 0.0, 3.0, 0.0, 0.0, 0.0], [2.0, 0.0, 0.0, 0.0, 0.0, 0.0], [0.0, 0.0, 3.0, 0.0, 0.0, 0.0], [0.0, 0.0, 58.0, 0.0, 0.0, 0.0], [7.0, 0.0, 6.0, 0.0, 0.0, 0.0], [0.0, 0.0, 3.0, 0.0, 0.0, 0.0], [7.0, 0.0, 3.0, 0.0, 0.0, 0.0], [6.0, 0.0, 1.0, 0.0, 0.0, 0.0], [1.0, 0.0, 1.0, 0.0, 0.0, 0.0], [1.0, 0.0, 0.0, 0.0, 0.0, 0.0], [0.0, 0.0, 1.0, 0.0, 0.0, 0.0], [5.0, 0.0, 0.0, 0.0, 0.0, 0.0], [1.0, 0.0, 2.0, 0.0, 0.0, 0.0], [0.0, 0.0, 2.0, 0.0, 0.0, 0.0], [1.0, 0.0, 0.0, 0.0, 0.0, 0.0], [4.0, 0.0, 424.0, 0.0, 0.0, 0.0], [1.0, 0.0, 0.0, 0.0, 0.0, 0.0], [3.0, 0.0, 424.0, 0.0, 0.0, 0.0], [1.0, 0.0, 2.0, 0.0, 0.0, 0.0], [0.0, 0.0, 2.0, 0.0, 0.0, 0.0], [1.0, 0.0, 0.0, 0.0, 0.0, 0.0], [2.0, 0.0, 422.0, 0.0, 0.0, 0.0], [1.0, 0.0, 10.0, 0.0, 0.0, 0.0], [0.0, 0.0, 9.0, 0.0, 0.0, 0.0], [1.0, 0.0, 1.0, 0.0, 0.0, 0.0], [0.0, 0.0, 1.0, 0.0, 0.0, 0.0], [1.0, 0.0, 0.0, 0.0, 0.0, 0.0], [1.0, 0.0, 412.0, 0.0, 0.0, 0.0], [0.0, 0.0, 374.0, 0.0, 0.0, 0.0], [1.0, 0.0, 38.0, 0.0, 0.0, 0.0], [1.0, 0.0, 0.0, 0.0, 0.0, 0.0], [0.0, 0.0, 38.0, 0.0, 0.0, 0.0], [150.0, 110.0, 126.0, 70.0, 0.0, 81.0], [150.0, 3.0, 115.0, 70.0, 0.0, 81.0], [14.0, 1.0, 82.0, 70.0, 0.0, 81.0], [8.0, 0.0, 28.0, 70.0, 0.0, 81.0], [7.0, 0.0, 4.0, 70.0, 0.0, 56.0], [2.0, 0.0, 1.0, 18.0, 0.0, 41.0], [0.0, 0.0, 0.0, 2.0, 0.0, 0.0], [2.0, 0.0, 1.0, 16.0, 0.0, 41.0], [1.0, 0.0, 1.0, 16.0, 0.0, 41.0], [1.0, 0.0, 0.0, 5.0, 0.0, 5.0], [0.0, 0.0, 0.0, 0.0, 0.0, 3.0], [1.0, 0.0, 0.0, 5.0, 0.0, 2.0], [0.0, 0.0, 0.0, 0.0, 0.0, 1.0], [1.0, 0.0, 0.0, 5.0, 0.0, 1.0], [0.0, 0.0, 0.0, 0.0, 0.0, 1.0], [1.0, 0.0, 0.0, 5.0, 0.0, 0.0], [1.0, 0.0, 0.0, 1.0, 0.0, 0.0], [1.0, 0.0, 0.0, 0.0, 0.0, 0.0], [0.0, 0.0, 0.0, 1.0, 0.0, 0.0], [0.0, 0.0, 0.0, 4.0, 0.0, 0.0], [0.0, 0.0, 1.0, 11.0, 0.0, 36.0], [0.0, 0.0, 0.0, 1.0, 0.0, 17.0], [0.0, 0.0, 0.0, 1.0, 0.0, 0.0], [0.0, 0.0, 0.0, 0.0, 0.0, 17.0], [0.0, 0.0, 1.0, 10.0, 0.0, 19.0], [0.0, 0.0, 0.0, 2.0, 0.0, 0.0], [0.0, 0.0, 1.0, 8.0, 0.0, 19.0], [0.0, 0.0, 0.0, 1.0, 0.0, 0.0], [0.0, 0.0, 1.0, 7.0, 0.0, 19.0], [0.0, 0.0, 0.0, 1.0, 0.0, 0.0], [0.0, 0.0, 1.0, 6.0, 0.0, 19.0], [0.0, 0.0, 0.0, 0.0, 0.0, 5.0], [0.0, 0.0, 1.0, 6.0, 0.0, 14.0], [0.0, 0.0, 1.0, 4.0, 0.0, 4.0], [0.0, 0.0, 0.0, 1.0, 0.0, 3.0], [0.0, 0.0, 0.0, 1.0, 0.0, 0.0], [0.0, 0.0, 0.0, 0.0, 0.0, 3.0], [0.0, 0.0, 1.0, 3.0, 0.0, 1.0], [0.0, 0.0, 1.0, 3.0, 0.0, 0.0], [0.0, 0.0, 1.0, 1.0, 0.0, 0.0], [0.0, 0.0, 0.0, 1.0, 0.0, 0.0], [0.0, 0.0, 1.0, 0.0, 0.0, 0.0], [0.0, 0.0, 0.0, 2.0, 0.0, 0.0], [0.0, 0.0, 0.0, 0.0, 0.0, 1.0], [0.0, 0.0, 0.0, 2.0, 0.0, 10.0], [0.0, 0.0, 0.0, 1.0, 0.0, 0.0], [0.0, 0.0, 0.0, 1.0, 0.0, 10.0], [0.0, 0.0, 0.0, 0.0, 0.0, 8.0], [0.0, 0.0, 0.0, 1.0, 0.0, 2.0], [0.0, 0.0, 0.0, 1.0, 0.0, 0.0], [0.0, 0.0, 0.0, 0.0, 0.0, 2.0], [1.0, 0.0, 0.0, 0.0, 0.0, 0.0], [5.0, 0.0, 3.0, 52.0, 0.0, 15.0], [5.0, 0.0, 3.0, 51.0, 0.0, 12.0], [3.0, 0.0, 3.0, 50.0, 0.0, 11.0], [0.0, 0.0, 1.0, 6.0, 0.0, 5.0], [0.0, 0.0, 1.0, 1.0, 0.0, 4.0], [0.0, 0.0, 0.0, 1.0, 0.0, 4.0], [0.0, 0.0, 0.0, 1.0, 0.0, 1.0], [0.0, 0.0, 0.0, 0.0, 0.0, 1.0], [0.0, 0.0, 0.0, 1.0, 0.0, 0.0], [0.0, 0.0, 0.0, 0.0, 0.0, 3.0], [0.0, 0.0, 1.0, 0.0, 0.0, 0.0], [0.0, 0.0, 0.0, 5.0, 0.0, 1.0], [0.0, 0.0, 0.0, 5.0, 0.0, 0.0], [0.0, 0.0, 0.0, 0.0, 0.0, 1.0], [3.0, 0.0, 2.0, 44.0, 0.0, 6.0], [1.0, 0.0, 2.0, 12.0, 0.0, 4.0], [0.0, 0.0, 0.0, 1.0, 0.0, 2.0], [0.0, 0.0, 0.0, 1.0, 0.0, 0.0], [0.0, 0.0, 0.0, 0.0, 0.0, 2.0], [1.0, 0.0, 2.0, 11.0, 0.0, 2.0], [1.0, 0.0, 1.0, 10.0, 0.0, 0.0], [1.0, 0.0, 0.0, 8.0, 0.0, 0.0], [0.0, 0.0, 0.0, 5.0, 0.0, 0.0], [1.0, 0.0, 0.0, 3.0, 0.0, 0.0], [1.0, 0.0, 0.0, 2.0, 0.0, 0.0], [1.0, 0.0, 0.0, 1.0, 0.0, 0.0], [1.0, 0.0, 0.0, 0.0, 0.0, 0.0], [0.0, 0.0, 0.0, 1.0, 0.0, 0.0], [0.0, 0.0, 0.0, 1.0, 0.0, 0.0], [0.0, 0.0, 0.0, 1.0, 0.0, 0.0], [0.0, 0.0, 1.0, 2.0, 0.0, 0.0], [0.0, 0.0, 1.0, 0.0, 0.0, 0.0], [0.0, 0.0, 0.0, 2.0, 0.0, 0.0], [0.0, 0.0, 1.0, 1.0, 0.0, 2.0], [0.0, 0.0, 1.0, 0.0, 0.0, 2.0], [0.0, 0.0, 0.0, 0.0, 0.0, 1.0], [0.0, 0.0, 1.0, 0.0, 0.0, 1.0], [0.0, 0.0, 1.0, 0.0, 0.0, 0.0], [0.0, 0.0, 0.0, 0.0, 0.0, 1.0], [0.0, 0.0, 0.0, 1.0, 0.0, 0.0], [2.0, 0.0, 0.0, 32.0, 0.0, 2.0], [0.0, 0.0, 0.0, 19.0, 0.0, 0.0], [2.0, 0.0, 0.0, 13.0, 0.0, 2.0], [1.0, 0.0, 0.0, 3.0, 0.0, 2.0], [1.0, 0.0, 0.0, 3.0, 0.0, 0.0], [0.0, 0.0, 0.0, 3.0, 0.0, 0.0], [1.0, 0.0, 0.0, 0.0, 0.0, 0.0], [0.0, 0.0, 0.0, 0.0, 0.0, 2.0], [1.0, 0.0, 0.0, 10.0, 0.0, 0.0], [1.0, 0.0, 0.0, 0.0, 0.0, 0.0], [0.0, 0.0, 0.0, 10.0, 0.0, 0.0], [2.0, 0.0, 0.0, 1.0, 0.0, 1.0], [2.0, 0.0, 0.0, 0.0, 0.0, 0.0], [0.0, 0.0, 0.0, 1.0, 0.0, 1.0], [0.0, 0.0, 0.0, 1.0, 0.0, 0.0], [0.0, 0.0, 0.0, 0.0, 0.0, 1.0], [0.0, 0.0, 0.0, 1.0, 0.0, 3.0], [0.0, 0.0, 0.0, 0.0, 0.0, 3.0], [0.0, 0.0, 0.0, 1.0, 0.0, 0.0], [1.0, 0.0, 24.0, 0.0, 0.0, 25.0], [1.0, 0.0, 14.0, 0.0, 0.0, 4.0], [0.0, 0.0, 3.0, 0.0, 0.0, 3.0], [0.0, 0.0, 3.0, 0.0, 0.0, 0.0], [0.0, 0.0, 0.0, 0.0, 0.0, 3.0], [1.0, 0.0, 11.0, 0.0, 0.0, 1.0], [1.0, 0.0, 10.0, 0.0, 0.0, 0.0], [0.0, 0.0, 9.0, 0.0, 0.0, 0.0], [1.0, 0.0, 1.0, 0.0, 0.0, 0.0], [1.0, 0.0, 0.0, 0.0, 0.0, 0.0], [0.0, 0.0, 1.0, 0.0, 0.0, 0.0], [0.0, 0.0, 1.0, 0.0, 0.0, 1.0], [0.0, 0.0, 1.0, 0.0, 0.0, 0.0], [0.0, 0.0, 0.0, 0.0, 0.0, 1.0], [0.0, 0.0, 10.0, 0.0, 0.0, 21.0], [0.0, 0.0, 3.0, 0.0, 0.0, 1.0], [0.0, 0.0, 0.0, 0.0, 0.0, 1.0], [0.0, 0.0, 3.0, 0.0, 0.0, 0.0], [0.0, 0.0, 7.0, 0.0, 0.0, 20.0], [0.0, 0.0, 6.0, 0.0, 0.0, 20.0], [0.0, 0.0, 6.0, 0.0, 0.0, 14.0], [0.0, 0.0, 6.0, 0.0, 0.0, 9.0], [0.0, 0.0, 2.0, 0.0, 0.0, 8.0], [0.0, 0.0, 1.0, 0.0, 0.0, 7.0], [0.0, 0.0, 1.0, 0.0, 0.0, 1.0], [0.0, 0.0, 1.0, 0.0, 0.0, 0.0], [0.0, 0.0, 0.0, 0.0, 0.0, 1.0], [0.0, 0.0, 0.0, 0.0, 0.0, 6.0], [0.0, 0.0, 1.0, 0.0, 0.0, 1.0], [0.0, 0.0, 1.0, 0.0, 0.0, 0.0], [0.0, 0.0, 0.0, 0.0, 0.0, 1.0], [0.0, 0.0, 4.0, 0.0, 0.0, 1.0], [0.0, 0.0, 0.0, 0.0, 0.0, 1.0], [0.0, 0.0, 4.0, 0.0, 0.0, 0.0], [0.0, 0.0, 0.0, 0.0, 0.0, 5.0], [0.0, 0.0, 0.0, 0.0, 0.0, 6.0], [0.0, 0.0, 1.0, 0.0, 0.0, 0.0], [6.0, 1.0, 54.0, 0.0, 0.0, 0.0], [0.0, 1.0, 0.0, 0.0, 0.0, 0.0], [6.0, 0.0, 54.0, 0.0, 0.0, 0.0], [2.0, 0.0, 46.0, 0.0, 0.0, 0.0], [2.0, 0.0, 14.0, 0.0, 0.0, 0.0], [1.0, 0.0, 14.0, 0.0, 0.0, 0.0], [1.0, 0.0, 4.0, 0.0, 0.0, 0.0], [1.0, 0.0, 0.0, 0.0, 0.0, 0.0], [0.0, 0.0, 4.0, 0.0, 0.0, 0.0], [0.0, 0.0, 10.0, 0.0, 0.0, 0.0], [1.0, 0.0, 0.0, 0.0, 0.0, 0.0], [0.0, 0.0, 32.0, 0.0, 0.0, 0.0], [4.0, 0.0, 8.0, 0.0, 0.0, 0.0], [1.0, 0.0, 0.0, 0.0, 0.0, 0.0], [3.0, 0.0, 8.0, 0.0, 0.0, 0.0], [0.0, 0.0, 5.0, 0.0, 0.0, 0.0], [3.0, 0.0, 3.0, 0.0, 0.0, 0.0], [0.0, 0.0, 2.0, 0.0, 0.0, 0.0], [3.0, 0.0, 1.0, 0.0, 0.0, 0.0], [3.0, 0.0, 0.0, 0.0, 0.0, 0.0], [0.0, 0.0, 1.0, 0.0, 0.0, 0.0], [136.0, 2.0, 33.0, 0.0, 0.0, 0.0], [136.0, 2.0, 21.0, 0.0, 0.0, 0.0], [0.0, 2.0, 7.0, 0.0, 0.0, 0.0], [0.0, 0.0, 7.0, 0.0, 0.0, 0.0], [0.0, 2.0, 0.0, 0.0, 0.0, 0.0], [136.0, 0.0, 14.0, 0.0, 0.0, 0.0], [96.0, 0.0, 3.0, 0.0, 0.0, 0.0], [14.0, 0.0, 3.0, 0.0, 0.0, 0.0], [2.0, 0.0, 3.0, 0.0, 0.0, 0.0], [0.0, 0.0, 2.0, 0.0, 0.0, 0.0], [2.0, 0.0, 1.0, 0.0, 0.0, 0.0], [2.0, 0.0, 0.0, 0.0, 0.0, 0.0], [0.0, 0.0, 1.0, 0.0, 0.0, 0.0], [12.0, 0.0, 0.0, 0.0, 0.0, 0.0], [82.0, 0.0, 0.0, 0.0, 0.0, 0.0], [40.0, 0.0, 11.0, 0.0, 0.0, 0.0], [40.0, 0.0, 9.0, 0.0, 0.0, 0.0], [39.0, 0.0, 7.0, 0.0, 0.0, 0.0], [39.0, 0.0, 6.0, 0.0, 0.0, 0.0], [33.0, 0.0, 3.0, 0.0, 0.0, 0.0], [3.0, 0.0, 2.0, 0.0, 0.0, 0.0], [0.0, 0.0, 2.0, 0.0, 0.0, 0.0], [3.0, 0.0, 0.0, 0.0, 0.0, 0.0], [30.0, 0.0, 1.0, 0.0, 0.0, 0.0], [7.0, 0.0, 1.0, 0.0, 0.0, 0.0], [6.0, 0.0, 0.0, 0.0, 0.0, 0.0], [1.0, 0.0, 1.0, 0.0, 0.0, 0.0], [0.0, 0.0, 1.0, 0.0, 0.0, 0.0], [1.0, 0.0, 0.0, 0.0, 0.0, 0.0], [23.0, 0.0, 0.0, 0.0, 0.0, 0.0], [6.0, 0.0, 3.0, 0.0, 0.0, 0.0], [0.0, 0.0, 1.0, 0.0, 0.0, 0.0], [6.0, 0.0, 2.0, 0.0, 0.0, 0.0], [0.0, 0.0, 1.0, 0.0, 0.0, 0.0], [6.0, 0.0, 1.0, 0.0, 0.0, 0.0], [5.0, 0.0, 0.0, 0.0, 0.0, 0.0], [1.0, 0.0, 1.0, 0.0, 0.0, 0.0], [1.0, 0.0, 0.0, 0.0, 0.0, 0.0], [0.0, 0.0, 1.0, 0.0, 0.0, 0.0], [0.0, 0.0, 1.0, 0.0, 0.0, 0.0], [1.0, 0.0, 2.0, 0.0, 0.0, 0.0], [0.0, 0.0, 2.0, 0.0, 0.0, 0.0], [1.0, 0.0, 0.0, 0.0, 0.0, 0.0], [0.0, 0.0, 2.0, 0.0, 0.0, 0.0], [0.0, 0.0, 12.0, 0.0, 0.0, 0.0], [0.0, 107.0, 11.0, 0.0, 0.0, 0.0], [0.0, 0.0, 1.0, 0.0, 0.0, 0.0], [0.0, 107.0, 10.0, 0.0, 0.0, 0.0], [0.0, 90.0, 4.0, 0.0, 0.0, 0.0], [0.0, 21.0, 4.0, 0.0, 0.0, 0.0], [0.0, 18.0, 1.0, 0.0, 0.0, 0.0], [0.0, 18.0, 0.0, 0.0, 0.0, 0.0], [0.0, 0.0, 1.0, 0.0, 0.0, 0.0], [0.0, 3.0, 3.0, 0.0, 0.0, 0.0], [0.0, 0.0, 3.0, 0.0, 0.0, 0.0], [0.0, 3.0, 0.0, 0.0, 0.0, 0.0], [0.0, 69.0, 0.0, 0.0, 0.0, 0.0], [0.0, 17.0, 6.0, 0.0, 0.0, 0.0], [0.0, 7.0, 5.0, 0.0, 0.0, 0.0], [0.0, 7.0, 3.0, 0.0, 0.0, 0.0], [0.0, 1.0, 2.0, 0.0, 0.0, 0.0], [0.0, 1.0, 1.0, 0.0, 0.0, 0.0], [0.0, 0.0, 1.0, 0.0, 0.0, 0.0], [0.0, 6.0, 1.0, 0.0, 0.0, 0.0], [0.0, 0.0, 1.0, 0.0, 0.0, 0.0], [0.0, 6.0, 0.0, 0.0, 0.0, 0.0], [0.0, 0.0, 2.0, 0.0, 0.0, 0.0], [0.0, 10.0, 1.0, 0.0, 0.0, 0.0], [0.0, 0.0, 1.0, 0.0, 0.0, 0.0], [0.0, 10.0, 0.0, 0.0, 0.0, 0.0]]}